314 200
AND 0.038599093436928626 -0.007888512784837803 -0.03606820509333603 -0.019706262750308238 -0.017929686709823672 0.061534557197293234 0.021970568288785967 -0.02522849242004254 0.02649561943209753 0.007463446799489596 0.020016896741755823 -0.037674799280213146 0.02741051275955281 -0.035023506091742915 -0.009315204168572995 -0.06409110749204477 0.030371088664431865 -0.07034191727425543 0.03784231731856145 -0.012006197994260523 -0.03298189053177197 4.374738806276369E-4 0.008669358120290547 0.01932319787365255 -0.041502398702985006 -0.05702285725955617 -0.052183347956359365 -0.04026997357413845 0.029575997655573078 -0.015236855996836326 -0.011533306972691903 0.011200440841201961 0.002016853956539793 0.016214137904734964 0.05693106832166042 -0.04913689527751468 -0.023942938198482804 -0.03739316334467946 0.0457541291787921 0.01499334544444088 0.04452116233526795 0.03605968169487345 0.03235035172535192 3.2159885113762753E-4 -0.009108398000089807 0.005101265491666018 -0.0027745506037980473 0.03570445121241013 -0.05054429382853861 -0.00837707398519531 -0.008986098017485433 -0.03218076330244744 -0.03847241332131772 0.011107041607912628 -0.07293873572859826 -0.032968935271432236 0.015574480624678864 -0.062238171566515246 -0.0372783412921852 -0.05913497876773884 0.01852085163505313 -0.05368593410795885 0.0017710905555558855 0.005760310836847945 -0.08143016121330691 -0.06407704700400059 6.197293688431792E-4 -0.003089155451941481 0.0025058933511519763 -0.02530377839786936 -0.010903562766425262 0.01726026958095407 -0.019891035899978884 0.008228505708455245 -0.03319030711869333 0.005559722038290748 -0.00787112520888039 -0.08081518630240629 5.26090301087653E-4 -0.02436745915648129 0.0018656647329665463 0.04011966347134103 -0.01241323194072763 -0.0769061181590841 0.039815477609222494 -0.01576233120781055 0.010408475617252852 -0.06492155788208137 -0.013324388954897218 -0.008635178630334075 -0.039993122422909325 -0.028038388291300204 -0.022513769300809686 -0.009419935450229885 -0.013026692087267203 0.01651472416830117 0.040236453351773165 0.028421397345307076 -0.03782937880174235 0.010362763274040837 0.029603369141122746 -0.0014190931523038837 -0.005867467603918815 0.0020892742779186927 -0.013249390500947839 -0.017095706150843343 0.02406322361465841 0.03925877692972315 0.022055904477843523 -0.011959909073838117 -0.023650859179390547 0.011772494555701599 0.013590813333854156 -0.003932603824506914 -0.020583249700535516 -0.013632717660984558 -0.021465654991253986 0.033388975403492685 -0.02502812931043226 0.02433498765988364 0.007063536895619527 -0.01327177409332766 0.0634734369096962 0.046673485577547 0.009999150771636652 -0.05154387634548086 -0.007185933978804546 -0.006587241201021751 -0.005208855200060033 0.010943611004602146 -0.009668981291829132 0.04093814375392451 0.00261087421723147 -0.018927999581963437 0.013598895926803346 -0.0031314699913323352 0.007026978961754377 -0.04874075913553755 0.04875588590653447 0.04624359225779787 0.009105449292779514 0.03597285144571083 -0.02607619667657212 -0.011357747891126212 0.03680299445776969 -0.019718781926554754 4.1402281644666375E-4 -0.013737699599943028 0.05316056607703561 -0.09577841543202645 0.005858448609229199 -0.01787843802362099 0.01641109248908326 -0.027152218972962005 0.056001661734493745 -0.010359363193512291 0.07834451969844573 0.0052890702187753215 -0.004258842384979782 0.004437774139636027 -0.01138632579468568 0.0017585876790117457 0.020488505889396793 0.011259322020252024 -0.0036698430579620023 -0.02878000158503915 0.018687297392189686 0.031396178533391224 0.009026105120796369 0.04697212196387851 0.018892356691623785 0.004907716358797786 0.039118200621822204 -0.02653088965818956 -0.022012701365657025 -0.010299950692048475 -0.014762941349536873 0.019687840287634893 0.058889461121006396 -0.022188335605699796 -0.05762048035905669 0.03265569190887883 -0.017874255203928217 -0.022144581726270193 0.002887168755046431 -0.04218901552068991 0.006383750840911738 -0.0061792081951993014 0.013380869216094207 0.020783501712023967 0.0022799319523835234 -0.04851982771127465 -0.01871108159554542 -0.031293391862482325 0.02098713005529912 0.015522955493142249 -0.024496703234181953 0.03247800075137247 -0.03954562245581063 0.03549136822231873 
FOR 0.03126198846813966 -0.02338193544270286 -0.005298825314549191 -0.01658636498438686 0.034082152700083516 0.03867084468082153 0.006123741625520513 0.0230085066280831 0.05473959606070339 0.04564760795509827 -0.005989709735552313 -0.003733769674518473 0.008641714206036872 0.005877794037361237 -0.04303384806453724 -0.0366692083878305 1.7473765100828296E-4 -0.03867190914954215 0.034050286947379015 0.02368440549878487 0.027119712204800892 -0.015789857260738144 0.011682363502306085 -0.0019924048113175038 -0.010734624170592 -0.027786503573818993 -0.03549543882908051 -0.05104763635365751 -0.0012693623040862618 -0.001664462760921702 0.02157070550827564 0.043329194310889975 0.006583937223841659 0.004690900109110932 0.05413203328085106 -0.03201794027385607 -0.01306614859464414 -0.0316244938849907 0.07703968109284623 -0.0016439658273344193 0.01934939263698751 0.035471492365796435 0.044976330546055945 -0.021909588563660147 -0.013221102817460363 0.01756542204021869 0.02046925105526509 0.014262470072449808 -0.020859605681279446 -0.047288485075888745 -0.053905687157695815 -0.05019559667263189 -0.014725085129644556 -0.01159983408246356 -0.03594743552053172 0.014260920143628394 -0.015327061361441617 -0.03500397214574145 -0.012257637807733215 -0.0461639149740356 0.04044649303089396 -5.232748425691012E-4 2.6882359677296146E-4 0.0010393644965922006 -0.07566467491885895 0.014763318101754866 0.006670903813688057 0.00477313457817869 0.022693781652601747 0.033305187785834904 -0.041864222636119906 0.03389529591919681 -0.03848364623621706 -0.01394107995262733 -0.002793686028430669 0.005861314019251868 0.00607935481352232 -0.08225960068970889 0.01578967936680229 -0.009086316180500946 0.05258490182319095 0.036754259430071934 0.010659210436945916 -0.09425748571622515 0.06902851411742826 0.007800066697461231 0.06905659548373211 -0.01618712734424438 -0.010889983680736046 -0.0014738302183092903 -0.03940035555509162 0.03663206564811728 -0.00950213886209631 -0.028177205795166246 0.039524944155299314 -0.016655774994523066 0.011044070413075844 0.01548245798653549 -0.005007144450605007 0.016194278419495427 0.04037364406436489 0.005124969035802313 0.04181128663219399 0.006585644887295434 0.0019239177906373594 -0.01333276292708004 0.02518914849570594 0.02606893885787339 0.03933924946725132 -0.04564387617517785 0.013129230320438449 0.011114127983535952 -0.03699368505792327 -0.02053889103443749 -0.05573734396652559 0.01425580946318214 0.027579567538424762 0.02173911530152182 -0.04898868031049991 -0.003799054926251343 0.024892279449437445 0.01695061063075543 0.09286655164472336 0.01516246215202749 -0.050310972711789956 0.0018576786417936894 0.029337161117498057 -0.015321043238085854 -0.007876140381912176 0.023466919426181065 0.01863723726257252 0.0861515422188423 -0.006676247740662434 0.01899968302377794 0.039786346467110205 -0.035356040270025695 0.07549722178116985 -0.01699562572945643 0.014599883118855482 0.04030957267010512 0.0422778450969403 0.03465352221162396 0.024847962158110394 -0.02897339118250798 0.05725325913510491 -0.023428847465876614 -0.005850197440295876 -0.037796436855092125 0.06322069585626543 -0.04207716698067788 -0.0017612844219017816 -0.010682388907078507 0.01962138849300665 0.0436227310921467 0.03622521545706822 0.003681981373617456 0.05186304915402903 -0.01065988728466845 -0.042124619219492614 0.014538491617637253 -0.009769089330097028 3.817572995029593E-4 0.047103299106697895 0.018225702568391657 -0.030137466253126827 -0.00456144238827852 0.04602180084918722 0.10506811771529627 0.03228617225256224 0.05038309032888153 0.0308649679792841 -0.019310528319871987 0.06821502205176846 0.03377811580708836 -0.005450666881819814 -0.036687741804602374 -0.0017436013846980842 -0.018020837355670095 0.029897824543541715 0.012665229658745171 0.03345703226275098 0.06454199632451839 -0.024216427793074796 -0.007508095620871193 0.003825689903088366 0.010373642217286 -0.014619003982353232 -0.02613392659999995 0.06195659690250039 0.003597837622609064 -0.010126362292059567 0.027804090698857042 -0.01899739740614162 0.032136811712610444 -0.005986350405915318 0.05134847354837941 -0.006539724291950281 0.04057349076764039 -0.03352587243956623 0.007206361084772908 
METHOD -0.03266537688624613 -0.013980175896495287 -0.02864244257850019 -0.07795310274104585 0.00703806214514969 0.03609597028842132 -0.03245191089555216 -0.003044957907794832 0.039494297819278185 -0.016000815760007506 0.01701373777300646 -0.013648346986267245 -0.02088438091894104 -0.004392885924241849 -0.03630165723382805 -0.059291173492383845 -0.011835637700577517 -0.05561217603689812 -0.008269413009876183 0.013896667222358477 -0.052387518329250614 0.017801427304078334 0.010858690546489237 0.05137058856906643 -0.07576640388946829 -0.09558968843631614 -0.04902535837198635 -0.030566259191478574 0.06832288452525975 0.003197218773273232 0.035359598554846355 0.05318966445999733 0.012406471463488535 0.01499137255627366 0.03714892425318702 -0.10421489028632926 -0.10819152112497117 -0.024386932382352722 -0.004680163414694118 0.06423734299122712 0.04289109740221088 -0.031537864349745835 0.008911070102005652 0.005982936734797542 -0.023504185792945977 -0.05316420345351758 0.00873814238249958 0.026460832409311692 -0.09161978660867913 -0.03148958087803317 -0.036913976403249164 -0.04775835895321533 -0.0558236164847015 -0.02244843897545533 -0.07649140603136001 -0.012427226808198254 0.004948993881608085 -0.08659503257125015 -0.07241001155899765 -0.06666319779336799 -0.0021329045106448013 -0.040312866123111996 -0.0045091346111501875 -4.480061980798006E-4 -0.09891570651648703 -0.04917963395610398 -0.026337947298032866 -0.0020005433273227666 0.022512106192987182 0.023263355692222314 -0.032283149203432726 -0.03885192100985619 -0.04250201957064377 0.00357159374728545 -0.06457736708745197 0.04071125935647392 -0.035358900118704385 -0.09254227144311024 -0.04316135591647087 -0.023617394059199104 -0.04012607630021634 0.08515133915273207 -0.009257079062325263 -0.10455903732056296 0.06271891294210515 -0.0481917977011296 -0.0041162504955478945 -0.07809599368998647 0.012260859970224164 -0.06522221899449625 -0.1297804388084578 -0.021105199440442424 -0.032329887947843965 -0.02643042609499114 -0.027373419464230896 0.014975386219672957 0.023960257714213912 0.00546397095228412 -0.02233950561700831 0.05778252905772591 0.07829438274844998 -0.006500455641360407 0.024790472119091418 -0.023940469594902 0.01916165758350682 -0.02545736087686375 -0.02356460257109756 -0.03321561399714087 0.01096638483474374 -0.03124484784349167 -0.06429875868062768 -0.018712338014086546 0.00816676768440499 -0.03496987526608033 -0.0422595561468468 -0.04801744399969204 -0.019900542415571407 -0.007457817093360133 -0.0462533533693762 0.06775920122092251 0.022438425128995087 -0.0045715585028717 0.012748810947712207 0.005427071085005787 -0.03427186938449299 -0.048832429107663944 0.006132398081065415 -0.04622614784582778 -0.005902556670004394 -0.033370597562394126 -0.015001925411441545 0.03424395216058693 0.027079802595476023 -0.03723195671936886 0.009477629559954468 -0.031427592940880815 0.052671452069639565 -0.03443281750690467 0.012920012715923088 0.06500575697096692 0.048232960905534576 0.024389367848283456 -0.024647306444874166 -0.03173472486754342 0.0644699476416241 -0.01774670363231008 -0.0020290664375029396 -0.03462367158468068 0.04174631904598238 -0.06997054045434652 0.010172701070298221 -0.03295506047796808 8.044147315129218E-5 0.00615269637548567 0.08166773328732875 0.020613593118645294 0.06197924276554085 0.056109154448790506 0.013115930574027214 0.024232924394464495 -0.020565914998412864 -0.03776790557497644 0.0024967959305051777 0.02801508904634827 -0.02195915677971491 0.0012054366634203968 0.011159467700174114 0.01623167911624214 -0.04248646637126319 0.09053161473006487 -0.038670306380924474 0.024283588110037148 0.04543939685518909 -0.007159270575875755 -0.02078500645478665 -0.029360621065201518 -0.010841561553260933 -0.011672377213014744 0.03945576752149848 -0.047411264572375336 -0.05207843199648021 0.01497252989106556 0.015406563465908863 -0.0027521736553334673 0.017340870290378126 -0.05321449734182631 -0.030295508822232666 -0.01819257644794511 -0.012611215215858243 -0.03682932495727973 -0.005123007666659815 -0.025797634543185406 0.011841726962182806 -0.03134180236443039 0.0032839495280393384 0.0714092166885658 -0.017828357377802098 -0.005284105853012283 -0.06489756659168636 -0.010412714506533726 
OF 0.04276351347939754 -0.017409734531806095 -0.06181932965106797 0.001912366869933973 -0.04567372258043485 0.07709596334803381 0.04295938244775041 -0.016552545994853708 -0.02998239296861322 -0.013560927079212479 0.0465954770327263 -0.031742059367929794 0.053158360313381774 -0.03511780851763707 -0.07670321552479806 -0.061149155577096916 0.051630807024652 -0.05528524370106455 0.04435987786050573 -0.04751634439526905 -0.03945128469095395 -0.02619589096025206 -0.029682554809641423 0.0039335534063231516 -0.04448745553882629 -0.039556961439347234 -0.06849148015709601 -0.02416914949266479 0.028567899369128336 -0.04373256347052715 -0.0034062627902347598 -2.578623735870406E-4 -0.028437013335556514 -0.04040160839704466 0.044822540672827434 -0.02722238546291602 -0.012715692294853935 -0.07541282464843145 0.0470392043474615 -0.0033011744827469423 0.04114309229498442 0.04795249965428857 0.003155596092943095 -0.02469789336749641 -0.06379557918038206 0.010568088733952302 -0.017082257228714013 -0.028425863209530743 -0.03792745578387114 -0.0575395384330041 -0.08731540323213396 -0.09457811840936697 -0.05990292958092851 0.04280661832864909 -0.08059473569478273 -0.042040182740947 -0.058552745404945164 -0.06276915062365673 -0.032433479707628124 -0.05633969438177242 0.022691246148120583 -0.04629739531228436 -0.04270376279324192 -0.04619622551252939 -0.10913015949304318 -0.04807292958561506 0.009115637033261811 -0.035542883299284324 -0.028103329616001087 -0.035412345074600254 -0.06618911000677123 0.029541769330457653 -0.08629346383160284 -0.05094585595118017 -0.03225117319859177 -0.0044126656608256196 0.017075475923416045 -0.07983431060628797 0.006315560493790369 -0.048115553471776255 0.02725512579456106 0.026802862507585592 -0.039518027446381526 -0.06168097319096664 0.015724494472372393 0.003954571440323901 0.06984052907488171 -0.06103834058918693 -0.02915827016040043 0.013015612363670777 -0.03571608773902242 -0.0402500296853987 -0.047802931259624946 -0.0576319069079348 0.043505628806534975 -0.01001759841542747 0.05687730204287659 0.04779168396299827 -0.05022802322243892 -0.012406883113550298 0.04741491108695669 -0.06072076559539255 -0.012575855012187364 0.01903584036273507 -0.03923296915813192 -0.06294553437094128 0.030542639440227008 0.054911005309672696 0.008271877425811579 -0.08646247772657419 -0.021038147512749416 -0.012208448016320967 0.004162764534635764 0.012344664522364969 -0.08376515935407089 -0.001701012129073252 -0.024800968995583376 0.0590635705651467 -0.08437062297235871 0.002982563743159472 -0.025209821932640555 -0.04336736526156811 0.05329922789586686 0.052631653469806125 0.027632290335788307 -0.024693357627500356 -0.02114939452322575 0.023923629965510552 -0.06658896970519594 0.030414992951984885 -0.01315682478533942 0.050950947475729674 0.0135043652367243 0.003530831991771814 0.019474384690831046 -0.08191442119428442 0.0391678309192107 -0.034523471484305714 0.07227363379422 0.024986139933941953 -1.5655005995226593E-4 0.06869011463162793 -0.026176789850424206 -0.08025823644253643 0.012154100864188557 -0.055679579451746015 -0.05862182777609656 -0.06979245814453837 0.049549587801409764 -0.08621492666765876 -0.06048153457814605 -0.038632491243932914 0.03763082748781456 -0.029317796256948376 0.020487431744720577 -0.038505008152272556 0.049454634587461556 0.01704600609792014 -0.010438106382635284 -0.02194688340414011 -0.00603226143399125 0.02518444811549378 0.02205648799871298 -0.007006901513213235 -0.06681489627065969 -0.037226082192467404 0.021652030774354156 0.05968333832398346 0.015237323468348692 0.044019583599804096 0.032181097006822895 -0.03275614574662604 0.025844894082776106 -0.03273521631526511 -0.04930904973779017 -0.08274112348604466 -0.028495818401685753 0.00778145734511702 0.08101503304259633 -0.010939449859288321 -0.035353171592628636 0.015220910485631668 -0.02986855613737615 -0.023527540575554295 -0.028900129100560352 -0.05510347314433748 0.040591070791276565 -0.05571947987803589 0.033534553456823046 0.02466941233110942 -0.05392432328310386 -0.025929497229524066 -0.03552524214168597 -0.04274823377726794 0.014578164190818045 0.028167665643680645 -0.05773145799099879 0.041571781966593946 -0.03947076796752789 0.048597193389499714 
A -0.037924397430131075 0.03305714897815667 0.004068263074588014 0.010690224315384063 -0.01736451802570801 0.01567492361560308 -0.02265655447256251 0.026373428109445096 -0.06448855603546289 -0.01924452265250793 -0.03291312056669609 -0.0054210259243498305 -0.026350877279035168 -0.009083284372704297 -0.07001457806160297 0.011596437088521039 -0.03700718484895037 0.016819792719853417 -0.03890760089985552 -0.03640166897008487 0.02077184879450942 0.011635091708855004 -0.03140193083111295 -0.0777882070558858 0.007131633162143032 0.041686864198136164 0.0084406363971767 0.06983133520627355 -0.07801128524882218 0.02970886751022476 -0.020796860124472502 0.0163178173787228 -0.020940073726969873 -0.05438555232066086 -0.002109113968779535 0.030035247750272137 0.008919699707843117 -0.030031552433611827 0.05251091273391345 -0.05479716379696626 -0.013116506728460124 -0.025225075051468558 0.007541854720348125 -0.050590557073858 -0.03852073741700859 -0.0074212566950936695 -0.005243245807070647 -0.07535121674963308 0.026827158214410785 -0.06941904829948184 -0.08860425236225249 -0.046901972660527765 -0.009459156866121 -0.0185270417977243 0.016516252613040645 5.701181089261952E-4 -0.07378088799349815 0.02460931567297818 0.015915183783352722 0.0057528231534084125 -0.02021342083465641 0.009150354895020385 -0.038889836495335936 -0.04256162907570837 -0.013970474279421692 0.045521872871799325 -0.010196335294011713 -0.02858537690134559 -0.014793691255808364 7.336564721862375E-4 -0.06159854179005004 0.06879097257725598 -0.04830911618372174 -0.06745001441945193 0.013279152350027728 -0.04425601448745702 0.0049293151459325595 0.026166844526583313 -0.010678893873494764 -0.008117164777832649 0.09006742615500814 -0.039524409451429945 0.04058531528607966 0.017665629352624636 -0.05779403609399988 0.008679225434340989 0.10164259294158749 0.025810529853073146 0.026272106670990166 0.0032224565330150573 0.009944064309452442 0.012937088395310397 0.04663917128462812 -0.04854794625609167 0.10718623279085983 0.0047845729296816285 -0.04721958740243247 -0.03266249308390387 0.06329074835085861 -0.030080821922052747 -0.035088689916166656 -0.05756814943957778 -0.017803673646273437 -0.019691709035127028 0.02349137408543825 -0.03126074177227318 -0.029120478436656848 -0.014152354035109603 -0.04169083140620421 -0.07061662922396617 0.008471813305679062 0.025855729807594856 0.002078296820211573 -0.019271236242985296 -0.06690161866717549 0.005241974255587667 0.005833412170122429 0.045414714483746434 -0.04982398052660232 -0.08142499606997694 -0.023145773442010013 0.03549914196335137 0.034616935440799364 0.00445382198064776 0.0355321125820998 0.03546326450510894 0.0061429883791007875 -0.005008526781881563 -0.04401869061749453 0.04858150807940819 -9.958681429266126E-4 0.028966230740097344 -0.029830290690101863 0.012530380874079455 -0.013401918321957583 -0.07199043879428424 0.011334900471872626 0.016805183038259255 0.022901900392656615 -0.012792960507076666 0.025738901245978434 -0.026587754126905814 0.009348908896613162 -0.055607888203266835 -0.038830771566756246 -0.020113662193108575 -0.04440899541958241 -0.0502246319191239 -0.039640041173826815 0.028079882171424323 -0.05237665550650288 0.056207430110638744 -0.026027011972775214 0.021930375343788996 -0.06807007277570687 0.017037220921229747 -0.061258538311629154 -0.04643526437680146 0.025912648342493003 0.01661317180212337 -0.008020897739557017 -0.004793761854151966 -0.035544701875363856 -0.01398178645284045 -0.062218628353077385 0.030628502221066542 -0.01941987151698848 0.09717536082594264 0.07114065790355374 -0.059374349091827476 -0.015402505187321926 -0.004338944960261324 -0.04426506336604473 0.008117387859727484 0.041751873411535405 -0.06177973201293877 -0.00462178248933052 0.012314968161448055 0.011970892997182033 0.005927227320648657 0.06257933617497814 -0.04356600360172602 0.0351216109282121 0.056684143861324934 -0.024415167655479242 0.00660343099413568 -0.008109805520839525 -0.05274358095029835 0.011372344314670366 0.04242102744470578 -0.05013207420319488 0.037045765317768535 0.028093893080687295 0.004656995822793581 0.019951839123103964 -0.014882190858039995 -0.00724291383897014 -0.027215414188314708 0.08747185143061331 0.030523956187353023 
APPARATUS -0.039972983007066816 -0.00685723146675399 -0.006679950312931167 -0.08292612896437283 0.048052381823631425 0.00742482288289281 -0.05753150833102834 -0.01696794673749215 0.08641046534544192 0.008053465306089283 -0.07169902168747583 -0.01687903249196304 -0.063992601875853 -0.006444653689880123 0.0045554741790097344 -0.05223578389572384 -0.058524979120260855 -0.06805000383967309 -0.020088302347366277 0.055447749623569624 -0.0045685338528939036 0.01798397534855857 0.02065426255626668 0.03697911985186747 -0.04481966473492087 -0.08049670299102925 -0.04290767128302973 -0.05451020515965234 0.012173927447271521 0.033933262156006956 0.00981906168452526 0.053013415830780994 0.011239156513074564 0.04017655997981622 0.06253215860283831 -0.09113179354754293 -0.07343269082746456 -0.007381400405490403 0.028245150475984606 0.005590889328610231 0.04335852154273506 -0.009392036008430561 0.07488593835731785 -6.351674770447966E-4 0.013154546809758508 -0.05420693267112334 -0.008141259846650246 0.06065570480403706 -0.06515818171468123 -0.015176636945987565 0.011691220679143494 -0.003790573452568821 -0.021644505764974845 -0.0819034876165136 -0.038151787557904215 -0.009850985978179894 0.03639866873499129 -0.06530169756225479 -0.06017204762789997 -0.06710222652392832 -0.024690219125859576 -0.014578378594034953 0.02084612548313293 0.034508422688597 -0.06429321700705751 -0.01128359629221671 -0.051902940885738415 0.023204872719078957 0.03272841764123698 0.05095180741942626 -0.006565043852285969 -0.031930916223307584 -0.00503242987575198 0.04057311627291434 -0.041832798661486884 0.004769340873366398 -0.06596668127029141 -0.09843233176429418 -0.047386711897662054 -0.012267971093218229 -0.023029469138252046 0.033767924144195764 0.035985979454148775 -0.13287966069724966 0.059581295151101735 -0.05318468570384035 -0.02842062827488183 -0.033776802392566786 0.010349826604135939 -0.07918830918169398 -0.08631201341822371 0.0310515274775539 0.017058043031475546 -3.217310702944307E-4 -0.0520235736990719 0.014817640085472874 -0.0371165257028403 -0.05494757766243441 -0.003444654999660326 0.041747615820645526 -0.004652631527380676 0.04024273554215331 0.028600732189562852 -0.0484090317705255 0.03660925026873066 0.012429589756560161 -0.04620245399470124 -0.058692398758193425 -0.00234845636405962 0.01092351671486266 -0.031203481005718337 0.035004375238205994 -0.009008226519423684 -0.0828285821020347 -0.009271238426604803 -0.04458007028092116 -0.012709946661587918 -0.02278640184308025 -0.018840200663348967 0.04947621795239222 0.021232447431010316 0.04332634492600345 0.06330510636272522 3.724477613700834E-4 -0.08066864012383959 -0.04015924273724031 0.015502142327949161 -0.08670953443390063 0.019761139225721126 -0.006408570840371476 -0.026216756230327865 0.02917390949358615 -0.04135530278743976 -0.044469363926633955 -0.018457116532136685 0.01682715014194978 0.025638277877308352 -0.04826666986161513 -0.03107396138424199 0.07522827946165102 0.06969824630301974 -0.03115327677746117 -0.0025347152841314084 0.0180059373484451 0.0724928193789805 -0.009814898481908621 0.027835919682977293 -0.00886601464210543 3.958310319849478E-4 -0.05040474466404106 0.03250555905459147 -0.010414357870507976 -0.0442004007884805 0.021685535506534348 0.049059712779192924 0.036447038677373624 0.03497171195274075 -0.016168422482837577 -0.0285522841776322 0.04564528278129921 -0.05166835023899889 -0.06546658757484726 0.0067383775656567665 0.014066910840454593 0.014996199275686363 -0.002878417769508691 -0.010493714542802032 0.01924011449562687 -0.024088291773769723 0.032643148251162275 -0.011327508578972093 0.025503142680715546 0.031672975845744716 0.004975303816506341 0.01815859166850352 0.010924331273262498 -0.021093937417307793 -0.00510655719565857 0.0040787842648972 -0.028601619326239443 4.1603203215245435E-4 0.024917683516364617 -0.025431831476053463 -0.02372064886925929 0.01740360805945974 -0.004438518201896916 -0.08760052363109559 0.0058962992044756255 -0.006583378109101602 -0.02407400815579961 0.01841444393079847 -0.008315927421186269 0.0035922682571195444 0.018686029380276515 0.0063067027099275455 0.018687222601117826 0.01004190769660361 -0.03727130444384062 -0.04948912359434782 -0.025696523445230494 
SYSTEM -0.013351786378112815 0.05359861888113098 0.05962104422920135 -0.05979683557188871 0.06976006790887133 0.025386588065808593 -0.06771561158584291 0.09049397075828415 0.07971342997317346 0.05437512813086887 -0.05677767066448765 0.050934061019913865 -0.05777484627383761 0.051996676661240485 -0.008683771008559443 0.02072185779881979 -0.08066752945486531 0.04777763774881384 -0.04136616403424023 0.029671604875920715 0.02979038374867708 0.06440730004184651 0.03723991551103807 -0.07096545436684414 0.02297160980789535 -0.002549418638270172 0.03288737255778335 0.03573253618247218 -0.06514616887018261 0.09219936458495982 0.02277795229348255 0.10598590943477355 0.03596976328904984 0.015510730988234715 0.08566038589625036 0.0282786210158454 0.0025386568324879404 0.006567784230527101 0.10556498601303436 0.007737382610093487 0.052399164380988135 -0.03400854048823124 0.09278958499834541 -0.012701736616040302 0.024686957634897498 -0.008396691033280525 0.07660911978577052 0.008172593721135138 0.020127848262924644 -0.01773142971843654 -0.02588704938686041 -0.005496184606283933 -0.006129894653268324 -0.07184943490059012 0.012411245787729406 0.08395950313354054 -0.002831184013402978 0.004826963961936609 0.01686798303402381 0.04079865614675722 0.019110841278140982 0.06412287235749163 0.026544887796615808 0.01941164717097464 0.03649921965777197 0.10776244035875107 -0.0332181458051008 0.027284127553589797 0.04979601035916748 0.04647942524240295 -0.012730241847682644 0.08040901135398404 0.011395086527213195 -0.011819162280847846 -0.03405787145282073 -0.023610398143508734 -0.014428556398844638 -0.06394110104054986 -0.014067550842473377 0.04652372830954799 0.09361637012214692 0.026423879414109588 0.10631622454289343 -0.04125025879750145 0.03796097668949034 -0.024581951339887814 0.0824209832965515 0.039201672819369 0.07835415573636195 -0.023030758801757457 -0.014598730254857256 0.1173389225063266 0.08583059797465631 0.0038448311459517662 0.07313840099184601 0.051508494107395913 -0.0693273082165487 -0.03578983381859928 0.10845482355501479 0.019457775303545543 0.03317290891780374 0.023452068032074103 0.06859816109681126 -0.04808638740521199 0.09123583160528569 0.021923800755024953 -0.017553965260990175 0.005111327829472542 0.03251773810697326 -0.014580428963467338 0.05220479412822328 0.07611177587018846 0.01166098399687259 -0.0600569517749834 -0.015748579241347416 0.0017798830220744977 0.07086874227107448 0.022581559083025424 0.00868497233979266 -0.05669438026145489 0.06321210923764584 0.11656955881315129 0.10862544394391375 0.026447707332115187 -0.020413045978311103 0.03997806742061456 0.07446856527904337 -0.05749212116377067 0.03932286206428357 0.03909493787984258 0.0306706351234051 0.12731965407279178 -0.026207578198496933 0.04247358909935763 0.006112300568582684 -0.003425440385819893 0.09734818839653071 0.02492436532792838 0.018849034823894502 0.08206970292630936 0.10301592433618231 -0.03589032569942678 -0.012355690585397441 0.006949955202141253 0.0345566866536722 0.019438101778703323 0.022883989273368224 0.004263442575266208 0.04940451851879507 0.05320127412275299 0.031168386835791678 0.09363493650336442 -0.021219643070671236 0.12088307436727215 0.00429666855316166 0.08915114769796989 0.014448959539869842 -0.054632361787529185 0.031278095521564346 0.0945334272873522 -0.039726569962610175 -0.05739237632279973 -0.01662614310192411 0.03444031929933307 -0.006508934008759831 0.09498407314112721 0.030167008264133814 0.15036552562234792 0.08837341539325591 -0.0034064059035435325 -0.03407037202214772 0.05825407642452758 0.030982577712176093 0.11923046436704014 0.0974957368566952 -0.002458866153015479 0.04621611304890869 0.04361248842156691 -0.0017368162778127483 -0.0338492437722522 0.11668975906655354 0.02494907335103035 0.07624811332090865 0.09750701181365437 0.02379991610649333 0.05860614911036814 -0.07631120901719816 -6.205845005861939E-4 0.06755078085010628 0.054568817903641355 0.01645112982316456 0.10433222958129643 0.07364928216717272 0.05267221583141033 0.05557478076895962 0.0371298508026079 0.03393611448630224 0.0010379339622963847 0.06604168182475711 0.04533945075735156 
DEVICE -0.08585210701482641 0.06991035580755543 -0.055137636527014346 -0.08608257882640995 -0.02006915259669519 -0.03680209933502045 -0.088492172734313 -0.05765229146521989 -0.049667791056000624 -0.04524756968147296 0.0397552862102571 0.02526600781389981 -0.055955308199218706 0.016992985187026993 0.009123604965981484 0.02195667656564286 -0.05133620250939033 0.03742395723652196 -0.08451557100604169 -0.0015258529751289772 -0.07220062058151504 0.0988600853242147 -0.055741016320324833 0.018492003642588347 -0.03384763710776741 -0.055912614660207714 -0.009593739336554283 0.07731840720286572 0.07495175074379333 0.06480849079842199 0.054146614085564246 0.08607461137719123 -0.050348437028026057 -0.06597566348855174 -0.005350703343120252 -0.06951786286038646 -0.11930254153026602 0.03907876364776395 -0.08994121267022154 0.0586042955468008 0.011649217936039907 -0.1446167620037934 -0.05213383799123568 0.03707099143765998 -0.05101655697832612 -0.06269664347525174 -0.04736762975662374 -0.07224592251744177 -0.05741282371276781 0.050557499908077765 0.032608366095197495 0.002352458888686523 3.87205205016135E-5 -0.03665389436851711 -0.012835797637887763 -0.020343253180810913 -0.030988877071841565 -0.021525658687642796 -0.036900488382565676 0.04070571394059405 -0.023235349681554485 -0.013007700902653059 -0.043239227776734786 -0.07113289589138082 0.03311165054287981 -0.05643433688039828 -0.031716305179156905 -0.0474448618347929 -0.07138907753492692 -0.021218950025322914 0.024293466713987816 -0.07556510516618442 -0.009607734589969968 -0.023863568637728955 -0.06826912112248285 0.054939690855999423 -0.017135292245310206 0.029931407362074582 -0.05862132396508169 -0.03890004249458669 -0.09487983589657947 -0.016104692339842786 0.035208258386033746 0.03678114607795461 -0.006170883513286682 -0.06771653557745924 -0.07312700755171164 -0.03980898793708544 0.10870358587461376 -0.0730534035725597 -0.11919038373846348 -0.09131122505659135 0.019201140399619208 0.009445848031764814 -0.04316369901938088 0.0830523531059754 -0.02661660352223469 0.010454326354569408 0.06856806103489137 -0.042536438070730424 0.05777240392146529 0.02156840596307475 -0.0011319990778341927 -0.03565211562947284 0.09164089708125302 -0.0357529489786307 -0.05223868809549153 -0.10173997772096913 0.012566537562351307 0.01022221051944495 -0.06650534662009754 -0.026061766339716377 0.06493101543209608 -0.01474142815667981 0.03393547070428797 -0.03708453188658751 -0.033883927168342945 -0.0609489438905265 0.01921970786411162 0.04633981648422876 -0.060293662062238414 0.044711589536732266 -0.11053488307409925 -0.04443966538620613 0.007395033228410604 -0.02789639630029486 -0.08215610511050002 -0.0345942279830878 -0.05331508258180434 -0.1062694209678132 0.013177109825539114 -0.07666991452846968 0.07793225347310634 -0.043469761203028104 -0.008205288998208361 -0.0055890721632260165 -0.03942069385471588 0.02733299064693722 -0.012673830800272977 0.05708465175374215 0.0659895722379491 -0.04891528034054265 -0.05700539540019157 -0.023108813381306804 -0.0835590262383751 -0.021636034285821656 -0.05454944829613728 0.00786864192335037 -0.031272670174436204 0.010647617192351423 -0.05326005389354141 0.03806715968379665 -0.02650923846892543 -0.08233324221413159 -0.015643901816835646 0.0976232580717567 -0.07735865791787881 0.06945221233704439 0.11505497796574848 0.08322653288828852 0.02773035140014602 -0.06190678019623673 -0.062211481104327594 -0.06623448346903558 -0.0044755323405860905 0.10707314453186549 -0.0029887867307059265 -0.08389380442621878 -0.08425349476500187 0.03209909541418734 -0.14677957403462671 0.10635601889785919 -0.003467064962041591 -0.06305586588516068 0.04574240601590829 -0.007050497128310576 -0.03249117272329764 0.03573591012615448 -0.04413117643900695 -0.08268210406671826 -0.09473239267978348 -0.03956559162035988 0.14451799248445155 0.11491424027926171 -0.05938619190894077 -0.046008615228829694 -0.0336507944748061 0.007192566768153078 -0.1006216823333572 -0.045887536040563955 -0.02651671036494037 -0.04911724512400272 0.11322379454149224 -0.054992400535830994 0.027525453215646506 0.03249979456980613 -0.06814978306090595 -0.037460040335120105 -0.0027546141172400886 -0.012397224923064354 
THE -0.003607169966047583 -0.024278707979793757 -0.09719446313693615 -0.02188453274088341 -0.06662446359803409 0.0493538059027266 0.017464912410127653 -0.07680952894973633 -0.05989431671044467 -0.05075824814873955 0.040801424504539344 -0.04672971336132536 0.022531114173010704 -0.047436743330529885 -0.07636130078681973 -0.06916489088543333 0.03832047334145823 -0.06848346650032035 0.014295015160757988 -0.050652672659460565 -0.0652136979421396 -0.019133613308446873 -0.07246933120723825 0.035669306909694366 -0.0680791694058844 -0.06962510537557966 -0.09466446328107121 -0.023102285056920115 0.051250310771324935 -0.04104452798081314 -0.00898875683853095 -0.024299721859134284 -0.07108932301777299 -0.06719346107058816 0.0042062833830764 -0.0703396118974229 -0.051674808047796734 -0.06795115623112073 -0.00939897944776715 -0.01795698769797936 0.024037028264348014 0.012724194311567768 -0.03310049341355261 -0.03700559637828062 -0.09221591016853814 -0.03016689192519716 -0.0683610332996939 -0.05447340688045837 -0.07043518616022061 -0.04981917105375867 -0.06711953791137329 -0.08821935031982035 -0.05366109630504671 0.019668559468488785 -0.08259563805940483 -0.07117750158082899 -0.06873145066941187 -0.07815788553008594 -0.06669495937719384 -0.08092995333158673 -0.015221933593511412 -0.07067893339324355 -0.0730489769079432 -0.07829367190060917 -0.09886715098604604 -0.08433657776989913 -0.012347667444966477 -0.06928274602809018 -0.07637818666797658 -0.053738195070183625 -0.07090408339332224 -0.018630558487425963 -0.09661210869309886 -0.05486301781040397 -0.04221283212885462 0.007519097188590991 -0.023352458658765403 -0.06158609301359588 -0.025797997471874955 -0.0882282432316236 -0.017158671182672836 -0.015699747726460916 -0.0573629201759055 -0.06797967008195262 -0.0030389977013055547 -0.027516996298650207 0.017074605079159862 -0.08057410056219774 -0.029697632504469478 -0.027377621947177546 -0.05870001676698303 -0.09445858538027291 -0.06264250789526207 -0.07000314481269118 -0.001853561317891615 -0.010237092667112011 0.04810931798683389 0.02361716617092592 -0.061737299612906235 -0.04612680128208112 0.007820865031976373 -0.06202574708714649 -0.036822355213707636 0.008041462537267133 -0.038918718385733866 -0.08482131933429779 -0.005178739283427844 -0.006953720154914188 -0.020768367056889756 -0.08043925436870945 -0.06245229781789885 -0.041982871412403464 0.008234188366594517 0.007128826927671943 -0.07769015234135532 -0.041859056239722324 -0.06448575933343233 0.030159103134959245 -0.0907228889795226 0.023502583300594796 -0.07019464744336103 -0.06120243759072735 -0.005700078346738549 0.021630488429376267 0.025504534896198156 -0.061981218539906395 -0.07656116820544592 0.0036425545432915247 -0.08822578221538734 0.008702946410323067 -0.04081496497935799 -0.040380410165793884 0.017061680482978285 -0.049499999500978886 -0.010195392853064622 -0.08250976256275927 -0.019896980517955822 -0.056744366315738 0.04263248817941019 0.016156704819871186 -0.015557979956946284 0.03231603589780938 -0.03459730211358626 -0.08953989098658402 -0.03647513444034467 -0.08729605201868385 -0.08325566171053099 -0.08019407059586595 -0.00985618148284677 -0.09320258549570176 -0.0826710083371602 -0.063576441989943 0.008850978858433809 -0.08175270277708085 -0.013151760684209313 -0.03804977233378335 -0.0012353055765359595 0.0372032435171764 -0.007934739149393409 -0.030487113379408105 -0.008082695280225803 1.713558484896183E-4 0.007823697293101829 -0.060158691091738326 -0.07340281106067136 -0.05345419064095805 -0.009709534627518187 -0.03260787726070548 -0.029499052863742038 0.03401721621082824 -0.0026253827852501816 -0.019100683634264183 -0.004708799622795546 -0.07717606436892901 -0.06050650673006516 -0.08595967143398268 -0.07540313055687109 -0.011749899604462372 0.06581826820643744 -0.02051394142338672 -0.08648005963038292 -0.009226997000746454 -0.03427393253233985 -0.03892540939965068 -0.0710115734100494 -0.07672641524532647 0.02596110073465332 -0.06803389402046048 -0.039996500488437364 -0.0171940421779685 -0.0779599120555588 -0.07180051884177586 -0.03361776447292863 -0.06300796285533669 -0.013500374230444848 -9.809340625075828E-4 -0.09132311103652448 -0.00889572554195382 -0.06460360519801334 0.007838720899171762 
WITH -0.0480929521167733 0.04603807091800864 -0.033350259414588745 -0.002215891782014669 0.01715479546262521 -0.04297713987740482 -0.057236473615214355 -0.05395827999307462 -0.02556789104185556 0.006540903156636513 -0.06808276722049894 0.013864946515191589 -0.0645320639520634 0.011616361701391242 -0.049479128349667736 0.04857286896991186 -0.07305189159191033 0.03235905986606359 -0.05857478254700851 0.01742150719850881 0.04227713207649617 0.03880020808203195 -0.06774752249418992 -0.060113453214304745 0.04756144319427364 0.047479712169552726 -0.03233461289493692 0.05590031972315871 -0.0788188939484258 0.0639594566697268 -0.015369079589582963 0.0017525933896480465 -0.06844377408814784 -0.06744790091944225 -0.0031162293452631235 0.029576384851460476 0.020164637855715126 0.02652375721288831 0.014488303793238552 -0.06848032563174769 -0.018767500230261937 -0.054539462576019965 0.03120194200619162 -0.08385530152202193 -0.04919356694018555 -0.008069693589926721 -0.06253306261835674 -0.07903871303909801 0.04374369873460449 -0.059998040209928355 -0.0418687199354801 -0.030565430367340125 0.04793626943034742 -0.06094992349561512 0.06793454522934719 0.00455090445597507 -0.05972261279061655 0.06035619280815053 0.03708926530822126 -0.02121088043663163 -0.02161234154355661 0.032194716996265964 -0.06421163118102632 -0.062047104034890804 0.016601795705212495 0.028747664460056204 -0.01577489622708166 -0.063786302986376 -0.058981632914070034 0.008598274788809587 -0.05578865264697475 0.03340388735081264 -0.035899171456722646 -0.06644965688205089 0.030168226424956073 -0.030758103835716075 -0.010249850712615513 0.05863536553155494 -0.00376621976151508 -0.05003581698042155 0.05405468436602769 -0.09936169615615709 0.0702199501728612 0.04838026690576036 -0.037649957467778015 0.0011825779734830812 0.031429601625564796 0.06067873810327472 0.050709628222582806 -0.009500420560397438 0.03975301359831704 -0.023513437038124006 0.07889469441099331 -0.05784394798791051 0.06480124809785676 0.024334530829539375 -0.08371699286125439 -0.05415605571146731 0.08454323186979192 -0.07965170706452392 -0.08221668503502265 0.014178702109434648 -0.006590487951846883 -0.02308757383918733 0.05598275966789143 -0.04793636208058873 -0.03464903770643341 -0.0677929406306883 -0.016921958512505823 -0.041668197578287006 0.026483539642190856 0.045612789829092025 0.005629289639822652 -0.02729726929582601 -0.042581654384635494 0.015097123941090916 0.010730183959704473 -0.011837110217475709 -0.03927850805851927 -0.06917067131580348 -0.06332484099404632 0.07365593261214334 2.499518373277401E-4 -0.018162909238462137 -0.007124080994754555 0.030654515620231103 -0.059873358088655175 -0.024743307413314375 -0.04139823549047092 0.021910566160232417 0.011086925533033648 -0.07138183407804251 -0.035411524624215256 -5.071158724330845E-4 -0.022469647097926586 -0.04608316619189399 -0.0653856938484227 0.02612941580650603 -0.0320119447701435 -0.006274438594031841 0.02670599039181106 -0.0838378488043083 0.019150837715991728 -0.04295284320663045 -0.080805262830872 -0.05237164925485074 -0.051742199192933165 -0.05262321721778295 -0.07574638208088272 0.05963277872771361 -0.04366241179411782 0.07413200451655112 -0.04324734395337089 -0.03394244744653031 -0.0862982374634218 0.04586387795119316 -0.1154800992215405 -0.05978969260676333 0.02538698898891552 0.04426372836819066 -0.002910064425611868 -0.03189866282946521 -0.029851599812641624 -0.07991417316092898 -0.05548170583522101 0.04027921067732693 -0.021345202844231904 0.013495029332039287 0.044799905764469336 -0.0778034682752677 -0.04026874956313102 0.03742765933559069 -0.03294957166912494 -0.021669796291615043 0.0775713060932706 -0.041348588144734 -0.06124011616221808 0.022032005337864317 -0.05128975375293282 0.01030499065649309 0.023412388400978066 -0.020813131280958096 0.046196803003475236 0.06125805991568552 -0.06939659622852443 0.04559585323579229 -0.052139534717868107 -0.060471714655490484 -0.042798023701143106 0.026845443831252803 -0.0598531789172548 0.006537327531060786 0.05122468042710534 0.038341851454013004 0.017243920966247075 -0.05486873322399602 -0.044517976414646006 -0.0462642282064013 0.08117333447102017 5.88943082238599E-4 
and 0.0888023428879768 -0.10110185471416117 0.10650931362489398 0.12674983549470348 0.13255383938363427 -0.13423446201317238 0.10658672654826395 0.08754114258248306 0.11390292154767012 0.12322868889392333 0.1358149361944652 0.12672005088273938 0.10992166697204878 0.1368943674596357 0.11222307820096034 0.14536678056055483 0.1137949232550038 0.1271348744080246 0.10864445871649869 0.1433093279949711 0.13328805643438257 -0.09806726022675775 0.1083977896594427 0.14262698697394013 0.12545160000108574 0.13400330903294685 0.10534449765835618 -0.08790061777505123 0.1416621643710963 -0.10074838691569443 0.14322609378345044 -0.06248161837663427 0.11112651235157837 0.11808916455226032 -0.1392698041384866 0.09721447552043956 0.08192326572606132 0.15577724811450777 -0.14799294729353304 0.14166627600448622 -0.14427734823823532 0.05310281589715232 -0.14656646460048395 0.08629078495292045 0.11650564759926642 0.12285426360067209 0.0964696810948982 0.11142251063640639 0.11913220454687141 0.0893472630141141 0.10986504993234285 0.11834341704795541 0.14866934591421613 0.1217907593236964 0.15014880199977634 0.12226702910903896 0.12433460877608155 0.14549711350737585 0.1335341959433677 0.07138237136671048 0.12830611339272527 0.12265863792289518 0.10513285222841313 0.1143817410086297 0.07467998713337065 0.0818421662440962 0.14378711342277756 0.10097176966103713 0.11166603873219742 0.1469954649369144 0.10997188756201609 -0.13915361177789978 0.11983597244150204 0.11069891594172672 0.14176258684317822 0.15636395422014276 0.1360515648622833 0.16485899207663018 0.12598340426887325 0.10466310128374015 -0.1348969919349259 0.1086568961639172 -0.1096581167192922 0.15037704996926793 0.13372313307580241 0.13096595056587595 -0.11622713264661909 0.12721975031339214 -0.08994978254471009 0.11840336906068182 0.08318594458807223 0.0480671420232538 -0.11455184464517583 0.0986670965980345 -0.1018623357158362 -0.10823036958003637 0.11952940692874092 0.13246388764424824 -0.08369891941132658 0.11648477689046287 0.12793466009746904 0.14329878140184585 0.12981796567091541 0.1288806424136084 -0.08935393667109201 0.10712772096018369 0.12179766324796609 0.0508781262412737 0.13410101436445265 0.12157039475193658 0.10074117979348457 -0.13335998555356177 -0.11698075115213045 0.13203796308171098 0.11228642682751039 0.13384730383487123 0.1252577366955714 -0.13678029311632484 0.10968091614542716 0.1427795855629858 0.10986550038741556 -0.10697233041670355 -0.15238837324851803 -0.1430303951651338 -0.12261869815289583 0.1298423116673597 0.09088435508255772 0.13348659621805276 0.12381244366044311 -0.15259890056899247 0.1405519994490143 -0.024579026264332744 0.15396559089225317 0.11431189396756194 0.13834402718929076 0.11446479061834566 0.08226452437559563 0.14265422709925127 -0.1386000658922379 -0.1268504221214695 -0.09453594882751917 0.1056752158393608 0.14125224458177882 0.11715095637917022 0.111924806011803 0.11550776060409407 0.12200590983714807 0.10737222861003885 0.10317968258990617 0.1294615829038435 0.13246405985142273 -0.11062780042355838 0.12092921555513318 0.07985043608124993 0.12667267620857586 -0.07718949028313639 0.07173189830692159 0.1530165693713953 -0.09243792239172334 -0.10020888411311171 0.15031779483905128 0.1278197948954453 0.12018448622634875 0.10357215289411086 0.11388668327855571 -0.047902676038679676 0.13106920816581474 -0.10254319868660929 -0.14169911551117875 0.13790594830385525 0.07283594338790346 -0.09620912645495194 0.13270718154224512 0.08076446487364176 -0.11209279554634122 0.12382615490915846 0.10224119412367563 -0.12614100482336746 -0.14247038155559177 0.1284552283852799 0.05585670480709586 0.12541852336439777 -0.06726464886224011 -0.08456344384315313 0.11634971681742864 0.12736795134775605 0.1255123769780374 0.10324715147878649 0.0605052301442551 -0.14010078553760777 0.11517048721380761 0.09033172653794931 -0.07976259297255722 0.1336761639556484 -0.12548930287436635 0.1393498559581554 0.11367786344174462 0.11693760766687768 -0.11046383766610704 -0.13668979174271342 
IN 0.02687671037058177 0.03286996697578865 0.005074275053099882 0.021943729268550913 -0.05845945711859256 0.09205883163513728 0.02336201702988252 0.04707435007433061 -0.07447009232563116 -0.014959771782140446 2.4389369004276107E-4 -0.023938621354120164 0.027125818660637718 -0.03470712146824631 -0.05283118762009512 -0.028108197959584212 0.008481536396923221 0.003240010534712473 0.005325934223310115 -0.08494554231133358 -0.01719342821616906 0.008530385862311527 -0.011136255244308097 -0.08568760660501652 -0.00952751198015205 0.020907647129486485 0.011505719125188869 0.05486137895616137 -0.08039619133251771 0.012657392343439473 -0.053056600471699966 0.022322932455776566 -0.004264241456420363 -0.03827975767057562 0.05581481258941828 0.06197015213769422 0.04184725852026162 -0.08370822657025291 0.10909258162359357 -0.04775352912268279 0.04481561404744468 0.02891489030906176 0.04277092029180296 -0.029264369443555524 -0.024604324811081515 0.022743363053156915 0.023404637067937308 -0.052963895830143264 0.01857326378377219 -0.04174911298660923 -0.08108294444425684 -0.05209836555476949 -0.059092788464899654 0.02079983190877772 -0.045607160598158225 -0.007802608306583803 -0.06415710856278828 -0.016136367796661586 0.00948952511751355 0.028720681512895797 9.414112844558607E-4 -0.012040003847757108 -0.019643454049305075 -0.029166510685169757 -0.00632162208913902 0.0374716418631505 0.0023578850872993497 -0.01394776869936478 -0.017533967730889752 -0.05103045966740417 -0.04660943436518607 0.1159851211878612 -0.04390259665479013 -0.05855269174856628 -0.015300288373781324 -0.0652650399414194 0.02290828863100459 -0.04862364475206414 0.004345765937393167 0.0075290310458539485 0.11903066643704646 -0.02574736943402644 0.03015651585840496 -0.008504180383180482 -0.055951988441948104 0.013304548848384676 0.12768160047442328 -0.0117719583963546 0.013467786905909915 0.03660463298862267 0.023645318359163038 0.033935646608782115 0.03574992296382141 -0.03023503471380467 0.1204762720429785 0.02226578926307173 -0.007530672135462216 0.00539876115820227 0.039280987251491026 -0.03491069411078173 -0.010440787430152103 -0.0941885003114707 -0.03303388387580643 -0.012277184465770755 0.003398291704066169 -0.025463198010988293 0.014761676521201389 0.07522227540027863 -0.027574175397981366 -0.07266752580582055 0.01956067691169127 0.05027474284623454 0.031615331025873966 -9.435148450191263E-5 -0.05889057739183012 -0.0028674583311980905 0.006161345518551325 0.10702085539710518 -0.034107353768213756 -0.0945502415483081 -0.007119891697733437 0.023288037373891044 0.10380406420986832 0.08523651689972286 0.09415058368894387 0.006431013729022847 0.02513345955963307 0.025537316790325146 -0.03944377408598165 0.09630600284321422 -0.016985726389681013 0.10333680070624117 -0.03707766562999861 0.030041890487041083 -0.0065806076030085385 -0.06094875982373903 0.03149656949788357 -0.021118108371847806 0.10045958698091288 0.02002008422479121 0.02249147067122219 0.021049340127688502 -0.03812927793602203 -0.04965175745916381 -0.033200549745395345 -0.013900664238817124 -0.03757160322045863 -0.03147166684022985 0.024581413953635382 -0.01662169079490674 -0.05197126790978946 0.05399039757920017 0.004196472310417247 0.02709405962779554 -0.05936095246389415 0.0043803137975215005 -0.0029783796532031003 -0.059373412527137445 0.028627601885330322 0.010383650018605185 -0.0320750833360618 0.01746265136909297 -0.02665214971905514 0.003886445914630248 -0.05360920855776832 0.022247275314233646 -0.007756420677961817 0.1380055765460429 0.11361518328541087 -0.04892389590402043 0.017456478831410556 -0.005248597922970768 -0.04550328805528656 0.02517823874808861 0.030704709952946524 -0.06191565014703177 0.01855947992994217 0.04955332619299641 0.09032323533066837 -0.011814513931583552 0.06451130988736335 -0.03588118816791751 0.02246703201334219 0.04568384243029079 -0.01194062122986038 -0.019527951972282548 0.022336071764955986 -0.039005039521783316 0.059719543488797495 0.10063867424094043 -0.03712912591417151 0.03728608239087585 0.012152684516342221 -0.036099999530717214 0.057862336461349605 -0.023201624864265497 -0.0075967427820729785 0.022614347946647802 0.08151464905796192 0.09815061365365768 
for 0.10416379904462891 -0.10145364561141358 0.10634781940663018 0.12920881967680195 0.1178439291452451 -0.11329882218333258 0.11529001722327628 0.08849261656183538 0.10646239251145806 0.12030314647313471 0.1357186643670003 0.11413992723332546 0.11910745371268189 0.12224604165271462 0.11759338914987762 0.1287019258251913 0.12111463568971295 0.11519519615837816 0.11634180413148765 0.1251059438233723 0.12612727127354642 -0.10098087675865842 0.11194491192438688 0.13037489484570977 0.11833261775952218 0.12960591280612077 0.10609162143845259 -0.09186259228024639 0.13183618940607797 -0.10440061055450697 0.12792315893059172 -0.06101630187434904 0.11419506242883633 0.11949828786148928 -0.12500947000493426 0.10216788891185712 0.09282587038635172 0.13627261355416936 -0.12696250304745804 0.13238918300106456 -0.13357936655658675 0.07108127177231498 -0.1365193956590916 0.09664534650852875 0.11913994688424363 0.12831323375340975 0.09937588864976217 0.11534057575633211 0.11631700723223828 0.09873459604655131 0.11351375490430904 0.11828042644455874 0.13451112133465798 0.12649436951473295 0.13160558441050496 0.11168083277913257 0.1245544109499982 0.13348277037427633 0.12837982567816514 0.07531301726726725 0.12918235641801104 0.10876249491646996 0.11078656632172174 0.11707203518664978 0.07474658765250465 0.07295420631154129 0.14108021268763146 0.1061284399095061 0.10997322666181751 0.1289508380512496 0.1155010052510528 -0.11999024393361105 0.12171446928314542 0.1137779789845001 0.13580409415479527 0.14083531635790145 0.135295626025824 0.14694408411362936 0.12759972262828428 0.10773707028813807 -0.12316484202165867 0.10987333688879233 -0.11002120967818134 0.13800828141887808 0.12526794948684486 0.13040671868497497 -0.10987655154361319 0.11456554308324644 -0.09503329780268831 0.12431949134709959 0.09039752760032997 0.05168249843175222 -0.11442494426279799 0.10637542614930891 -0.10110331746820922 -0.10690929590206337 0.1236625898655907 0.13413390237415349 -0.08885420617177887 0.11363982607336212 0.12412567650755835 0.12917397052325744 0.11855536610182138 0.12862675696190815 -0.0956723917231518 0.11095916249612775 0.127284865118205 0.07672807163576748 0.12853971090089342 0.12230112227070965 0.10160181872416581 -0.12528705934389628 -0.11420576846911115 0.13260528308524874 0.11517367591666826 0.1313630794681371 0.11824522269691976 -0.11557658792859966 0.11369490816105957 0.1303658869083302 0.11096193918393628 -0.10843579748531958 -0.13068663089250485 -0.1249111714702581 -0.10670273346408289 0.12140477378091497 0.09344799366374087 0.13470969090037344 0.1213787500294288 -0.13439008207259945 0.13342641667713517 -0.0033078319351544337 0.14244315446746764 0.11540292300194918 0.1356225387538983 0.118156955170982 0.0850581499780486 0.1300734626520635 -0.1171760395365385 -0.12098794140468476 -0.09593065127481973 0.11323477645371006 0.13223838610371125 0.11955528983176346 0.11064228731487183 0.11763524665666346 0.12155235765136069 0.11314770536411566 0.11086919355516252 0.10962669477278147 0.12759626405804783 -0.10825895351295078 0.12417532892987243 0.0763636178024762 0.12388907725704544 -0.08260670572653804 0.08586253882174805 0.13868120359154965 -0.0956085978638643 -0.10169766494085727 0.14202975143532773 0.13059020449126346 0.12114784737712672 0.10710035834036233 0.11785671135215126 -0.052964373270499986 0.13006208543919945 -0.09419719249318746 -0.12572350320695214 0.1312573901264753 0.08544696594018011 -0.10073039549562457 0.12816440677028743 0.07790226846899877 -0.11302661086751922 0.12443130067003416 0.1067115612424113 -0.11807624165165041 -0.12179253272733462 0.12619726608809745 0.050704692473487474 0.1244195476191937 -0.07396702811825935 -0.08757573692062098 0.11760404063030228 0.11591601774958452 0.13006801980050733 0.10953059548353687 0.0748908100757912 -0.12257931630039128 0.11846367746717915 0.0837403750452913 -0.08702147744141987 0.12158301085987701 -0.1174794451719786 0.13062013614049273 0.11395519340469808 0.12397921106782378 -0.10662882135913411 -0.11839466500758905 
AN -0.0563377526943106 0.04374396287644286 -0.0308080493052848 -0.05753948979248952 -0.01225269435846862 0.005640412628382135 -0.08133351162719914 -0.003842721801612959 -0.027632324950702003 -0.031507933326159934 -0.09847168681741074 -0.022608789539848323 -0.08440151612182888 -0.027365680214780193 -0.08833137027710121 -0.021631357345411963 -0.10205773927723712 -0.015897738231387987 -0.0701424199685071 -0.023357761859615512 -0.006841256847340372 0.030526749338004523 -0.0503744650129174 -0.09486797745838023 -0.012482240546625955 -0.011606886762172235 -0.04418051327533828 0.0506937688077264 -0.10500804225420347 0.06641574431160038 -0.042909756193707696 0.0371408840318154 -0.05683373762113293 -0.06179870958624578 0.047677408861171486 -0.013657580071160644 -0.01766557023753144 -0.04383052950560323 0.06830106361905278 -0.05980249090731641 0.043957415121229325 -0.03665117189568748 0.08991789817804802 -0.07075532774724687 -0.06091951225975555 -0.05822326575213334 -0.03379464845563003 -0.06486728565604433 -0.004266638438694779 -0.09108021086727995 -0.09140330228571909 -0.06990461407862389 -0.04558064420482046 -0.08492677986535833 -0.01084680119678819 -0.02694316264117257 -0.08075255181942693 -0.01893365931209979 -0.023092185878291784 -0.029010363832644343 -0.06657812445629936 0.006357361228866109 -0.05903322234591804 -0.05813895763146857 -0.021422826368033283 0.04116133530902258 -0.07647664837940056 -0.0419643190322499 -0.029690666718940457 -0.025926743392025484 -0.08688957358138641 0.06470742658405866 -0.07927686358577121 -0.07716890788313005 -0.039980193306069244 -0.08658800738215369 -0.05243431800505231 -0.04984826053314602 -0.04991928683717677 -0.043506794369608165 0.083460859026255 -0.058519417358662146 0.09069777003694969 -0.038440232636338036 -0.05995659553861526 -0.047944652499602045 0.07200963092247042 0.007507705180145632 0.050175982342288504 -0.05488082583004243 -0.013893296244905753 0.03759011542501943 0.08551495864655953 -0.07746610039719573 0.09012947186656078 0.017760881290731736 -0.10353442655453238 -0.10021550312041523 0.07918011086883525 -0.03925230657849419 -0.0727027684192393 -0.052297389628905934 -0.047217849627226 -0.0658479638846688 0.0636861679151177 -0.06015156103653043 -0.0731247488449266 -0.050702377597317654 -0.07228887971459523 -0.08026643483142164 -0.014481068024104558 0.06727258865141748 0.019455746307410912 -0.07221586791402447 -0.08317940047463293 -0.04235890042582971 -0.026281432699853 0.019818686556691525 -0.07727643211802258 -0.08307628892099375 -0.03672754448841022 0.09219903600212008 0.07074957091475642 0.02957856358646899 0.002626073416050746 -0.005593258242409853 -0.01701544805464532 -0.08385566901850805 -0.05483883399503897 0.06906859040666445 -0.054985381986013854 0.032859019323518264 -0.1018182709320629 -0.02759006190730363 -0.06495058613684947 -0.08614431474977752 -0.012942931139031597 -0.023264948144699787 0.001576333044623243 0.04335258987517358 0.056624796019903514 -0.0776394442719574 -0.028633137218006872 -0.07186839657573395 -0.041163530403729144 -0.06296648592512276 -0.058252820808191545 -0.07861293442826442 -0.0728404555035077 0.023721339093135358 -0.053522967888231764 0.08025890015881826 -0.061563972070860305 0.021435842331841322 -0.0894677337010973 0.052328638400783084 -0.0748466279390807 -0.0970245004263872 0.016120977108563195 0.05670590089554433 -0.07186460519651078 -0.07068830663177765 -0.054823834960855786 -0.04482067524584464 -0.07898576381640611 0.04750957718606034 -0.06806653747067269 0.08230661926808813 0.08220928269308932 -0.08419436669409781 -0.037737446858393586 0.03534377678451795 -0.061681443305412684 0.014282136014778513 0.08892245812078546 -0.0790857092899878 -0.045349689024582356 0.036104003023021476 0.010560664984112358 -0.04352416263857176 0.06031638115305926 -0.06320461987081168 0.028967281978125564 0.057446204799930525 -0.05343502733772221 -0.006850428471818026 -0.09583361563611874 -0.07927594196958516 -0.0015694008703919255 0.05399905485916149 -0.06544767232507437 0.024753365705556724 0.04640509147562213 -0.005801984473910781 0.04469236571574244 -0.07676514924432896 -0.0466309843589463 -0.05628753955165083 0.08154867782373817 0.03188574949787348 
of 0.10398740293753692 -0.10772871122823045 0.11460787002349943 0.1410204964173926 0.13317954669593496 -0.14079601655896834 0.11813500993867933 0.09730933915509433 0.11014356356616496 0.13174582402309137 0.14727391042512245 0.13609566658816857 0.12321794608292534 0.1434466530562096 0.12444676825699887 0.15404395504207902 0.12510246759230592 0.1435163416274132 0.11770801520441034 0.14008841299289038 0.1415059572550622 -0.1065571693573861 0.11305069796610018 0.1411214863478326 0.1399071986949172 0.1501477104430508 0.1185075377976448 -0.0921660434356101 0.14519472404255918 -0.10942618154682555 0.1470441835279779 -0.06779550879164735 0.11656342363033503 0.11819885017284192 -0.14838555772280793 0.12038636485562357 0.10198205577414275 0.1567536608187417 -0.1520745994700862 0.14432244975370406 -0.15363122849706445 0.06194197108273085 -0.15754883331148642 0.10256842529428242 0.12276711430359909 0.1382377760002536 0.10536089544720292 0.11097349135766657 0.13595283380375525 0.10768662936812377 0.12121591099940932 0.1272914705830496 0.15667414759834847 0.1338649929587094 0.1572288192280442 0.1302753433628161 0.12551173684242925 0.15752638680102116 0.14721826041130207 0.09712075423586564 0.13910921638952586 0.13345967062963715 0.11295096427597077 0.11624076186761588 0.09933239637555466 0.09661546448138085 0.15270152401544215 0.10813937363280376 0.110802639462677 0.14406325601402634 0.12408483131369205 -0.14035324780982233 0.12960628443381947 0.1151480438164443 0.15113679021594256 0.15671355741201096 0.14947025735603686 0.175614023117076 0.1381134935937377 0.11552460120632684 -0.13906302909106608 0.10901362005816644 -0.1173171873246798 0.16676541055082664 0.13353965560288916 0.1418476603106883 -0.12264682413731529 0.13883893392934857 -0.0960471639921013 0.13442556429760322 0.10365024563599445 0.05510219002597268 -0.12246049476285166 0.11292038605988963 -0.10644387839198453 -0.11686628038845225 0.12755264105666528 0.14396046484725256 -0.08674632091946852 0.11384697595616666 0.13583119817131115 0.14502194198856316 0.1338010159026953 0.14057099045410376 -0.09773898637606851 0.11568754248402356 0.1345338743844156 0.06771608257932894 0.1422442294276944 0.1294437505026727 0.11656359002002842 -0.14266745600750558 -0.12464564178507638 0.1461226930193483 0.125159347824748 0.14556412200096636 0.13450707980609866 -0.1393444557765193 0.12365752998485244 0.14070190420252113 0.11384881915393222 -0.11372345743832102 -0.16023447555309978 -0.1491969591879569 -0.12246843352750526 0.14249632895853648 0.09512080268359414 0.14712553197559045 0.12526021758512407 -0.15509917653158742 0.14987150606756403 -0.02334282049283585 0.16036262740622215 0.1291707676161429 0.14699277678546854 0.12300004510974225 0.09145748362255682 0.15264611913364323 -0.1404206969132142 -0.13795894864240751 -0.10569292759885454 0.11471938636498392 0.14695080360988333 0.12445501734896035 0.10720500398771128 0.12342779794910258 0.1235402412443155 0.12030376060709144 0.11293139843628433 0.14175569523077192 0.13118141762313823 -0.11550512398557976 0.13224694209876617 0.08471798508829065 0.12223364093812973 -0.08451970836107382 0.07165750820809869 0.15415511871998805 -0.0993784444262446 -0.10856736347295685 0.15997542568939027 0.13951936517062868 0.1290241683421692 0.10598777915939021 0.1229035557783718 -0.04496359296988192 0.14155324779885298 -0.11174794484034367 -0.145133371525926 0.1386867449738115 0.0804485153245805 -0.10567726613955207 0.1358959376197225 0.09075847279396042 -0.11786364742146972 0.13104963068758063 0.11433240229228848 -0.13227116413472342 -0.1481469195545792 0.13789939811051694 0.07032582605152009 0.13176183456634225 -0.06921047199387606 -0.08486864435897797 0.11853234688933648 0.1362495978017396 0.13876991787595921 0.11524191014475131 0.07468788113779784 -0.14339262362523894 0.12197845630460112 0.10435477814295684 -0.08629658603590569 0.1385566636201334 -0.13351469267255853 0.14218285700658925 0.11727682848117216 0.12987229674111256 -0.1153122420299657 -0.13960877262389812 
USING -0.050690586399431914 0.03768486231261691 -0.0453867283660563 -0.05479178117289467 -0.09440740329328197 0.07981458471421655 -0.014642035234367076 -0.019983266329643187 -0.09097577968464851 -0.08857162052320755 -2.3593022996100345E-4 -0.07034140911633688 -0.010594745138198471 -0.07347723441417495 -0.039672376564669126 -0.0798465039126067 2.3583969221952227E-4 -0.06077773017478472 -0.03133387744533714 -0.09542768384429055 -0.1060122139608442 0.0343660859756541 -0.03489711149293319 -0.004208776939877398 -0.0970733310422354 -0.0925125262007019 -0.022564416896771182 0.04481703857229028 0.011366047859074762 0.009361106668986225 -0.05712691019203597 0.02922664321023378 -0.032422218270008074 -0.045019239395367 0.03924836801295339 -0.07748188219551058 -0.08972485601555838 -0.09268242315265461 0.009321015125374924 -0.01774018218140278 0.060971851798506956 -0.02718810420345031 0.008894102788332865 0.008839117118909412 -0.04841288806482855 -0.06678091763353676 -0.024730508794509807 -0.04709223766101932 -0.09883293091644625 -0.001614052893352968 -0.041325736879604565 -0.04885283908886845 -0.09003429730333677 -0.010695647387832893 -0.0994186479326686 -0.06038145516234322 -0.05527244381457118 -0.09868151633803558 -0.09070539734856203 0.004703854374434419 -0.0707403948862816 -0.07152248570845768 -0.034176293888237834 -0.04537219681502781 -0.031861571412375944 -0.06183369341435052 -0.047093282720485956 -0.0286280337244284 -0.04889333227970549 -0.07997906252400365 -0.02566388940473934 0.007648007348727011 -0.05683474137440747 -0.0342362603303675 -0.08005157277064516 -0.03684235767468102 -0.05330055255349853 -0.06911619973841034 -0.07420302561549397 -0.03166367208677016 0.00407779090941076 -0.0104329190862721 -0.0028958753450195056 -0.07202792207814714 -0.057269329093390005 -0.07040966190517495 0.032966709979654785 -0.10179044662079706 0.025103510811314057 -0.06348936799942426 -0.10409712865316971 -0.046164561139921755 -0.004105142096476968 -0.022157452594340796 0.016543962798535504 0.05115251314847861 0.0010480059155949086 -0.017826045859837963 -0.009655256707953142 -0.031157317020501736 -0.0013834154115925257 -0.09269360504340696 -0.06464227522809841 -0.05379787956781141 0.011797927406157262 -0.04276876802856047 -0.047323474862852336 -0.014034373018117385 -0.055495487895029075 -0.05575816439914054 -0.09536007667278841 0.0153616739587482 0.07386783291183632 -0.04594344311388711 -0.03540820888397286 -0.08530665062352583 -0.0712721611303848 0.060358223759943645 -0.03975177976033115 -0.0068751586131748565 -0.03819996772258894 -0.012751719792510264 0.012089857453262217 0.059783799622210504 0.0785972277685626 -0.08516714492227105 -0.028561237724296737 -0.02743785194092225 -0.06805324373242418 0.035064088894160725 -0.07420730400562232 0.0049162363288462775 -0.026024353525141142 -0.07159194304647878 -0.05597715278457322 -0.0513259948074079 -0.017709543467911783 -0.07857734646964382 0.07528997538929169 0.05587957955236637 0.03273094989955237 -0.001984308561210563 -0.08808686377826817 -0.054298861128793466 -0.033924281499475996 -0.037707408829121256 -0.05414598093148491 -0.02761635211370791 -0.017905283749345913 -0.07810796119038668 -0.07062089547133753 -0.004047817734620364 -0.05157934199220533 -0.046053223467718785 -0.03076531042654375 0.01499432527524198 0.0044191990389845 -7.036187791313513E-4 0.05803347393839697 0.016605945719190395 -0.05104076608350575 -0.03407777103439397 -0.05720076542902944 -0.02181155134425456 -0.040057795902278 0.009134761291476277 -0.06283212041311703 -0.004863166880972086 0.0020472202073839245 -0.015229035637522481 -0.047491037197207875 0.034714566501191875 -0.06945885906627532 -0.04793639890814377 -0.007038464439333985 -0.05898474087724005 -0.016134779131974947 0.04698793789397247 0.09248959085450298 -0.07512742242090797 -0.05516340861224136 -0.07455443959364547 0.024869162514460422 0.012633247867606013 -0.03083565279156916 -0.09537338904427019 -0.009350802269420712 -0.02843164405463538 -0.04571489752921415 0.026507110567066425 -0.04379122392515799 -0.05187800501003959 0.023505568454675822 -0.10136209072526994 0.04648559362059658 -0.027624051283376413 -0.04643289957156172 -0.04005595331885591 -0.0017311909140933569 0.04755711624495732 
TO -0.033398373379932934 0.07871226377654632 0.01387803631130081 -0.013012202818600913 -0.04981683265500552 0.08528174745783548 -0.022343893408978157 0.04855340461995357 -0.06566827148319866 -0.04842095487635477 -0.06286457874135694 -0.047018639516599896 -0.027121959937774564 -0.04757859088919891 -0.0599982428527944 -0.031201452430523288 -0.0402832127013888 -0.017690972550339964 -0.037483211646919604 -0.07779413583863568 -0.02328930863127146 0.042566987663958604 -0.010712161981108047 -0.1134982823830884 -0.025941911317526867 -0.003180757293365191 0.021494171266488914 0.0916577338032042 -0.10729232804583395 0.050576133049173196 -0.06857734272405679 0.046378131048903454 -0.006393625018807493 -0.04313778836800511 0.07572808545726668 0.010574497995620932 0.0037119745767247043 -0.06977917927315666 0.10983192983373563 -0.07535653152611012 0.06130272092434957 -0.009388316098883276 0.07763584441873984 -0.03665531248783919 -0.022612760117486665 -0.02859670989822603 0.01662635161112241 -0.054431676370953114 -0.009446790210982244 -0.04753759237940681 -0.0803759990804693 -0.051586749789700535 -0.05811235739198996 -0.033070344183484646 -0.02976305306553901 -0.01440852893808108 -0.0722605564302562 -0.019066086174729664 -0.01896040872811399 0.042965916360814094 -0.05187352079788501 -0.01835305468304257 -0.02162088199700425 -0.024611063933153838 0.0030877811339626174 0.029271830924668583 -0.043387324826384334 -0.009799839010027709 0.0018259486593404303 -0.04136592439827321 -0.050965175711251046 0.12463547478835012 -0.04249546289848888 -0.06516782094663567 -0.034120043335189226 -0.09188178515880789 -0.026428636494228545 -0.03858458886409966 -0.03696674289732509 0.012705309127801222 0.1327573333551936 -0.03573528946091063 0.06793130000306508 -0.023809030933036577 -0.08360379177196293 -0.025142243297367188 0.13915353191597848 -0.014085055859567916 0.049761420391966175 -0.013839550907474256 6.188469276444072E-4 0.03674223214077026 0.07702983329828188 -0.03342023574847708 0.12502885391304777 0.05143745928945047 -0.058657814683895734 -0.048040676985620055 0.06596277033519522 -0.033323886226227666 -0.045145823664049026 -0.0866864468263042 -0.04876735712464653 -0.05157620702709922 0.04188053652855493 -0.017033848683470222 -0.04195253681660121 0.009336630438408378 -0.06519227927810325 -0.07108235041156764 -0.014049346486922302 0.0893456636372415 0.06105905373704803 -0.05632166278516503 -0.05895973109851806 -0.025692135933620214 -0.021456762581231536 0.10576768450348498 -0.03979786636012712 -0.11837307057696098 -0.008952135125812642 0.05944358378195879 0.09322048528442561 0.08743346743863983 0.08761291153360491 -0.009432908701363507 0.02839094999703182 -0.02441678347679793 -0.03712116753107196 0.10967102469550888 -0.047373104906163664 0.07044899131422869 -0.07337385572809257 -0.013729046839784688 -0.05458854351701066 -0.06328928054832922 2.07504990962195E-4 -0.033079762578433 0.08951117603927351 0.04359675298297828 0.058622853322171584 -0.03014980484461648 -0.04690334399180343 -0.048848605295436845 -0.02763684120171896 -0.01008551093467851 -0.036643113709746676 -0.037817809936476966 -0.03390127025528918 -0.008098486584411509 -0.05199925463677923 0.08277779090504508 -0.0623685449900889 0.02646723008160286 -0.06593193634484595 0.03785674618728182 -0.013293633422007548 -0.09497032862927533 0.05514048615292796 0.04933041739404105 -0.06219045602509679 -0.025771119690616587 -0.06299494287018474 0.009569059290870296 -0.054494480328435714 0.0473175269302813 -0.05752469150508412 0.12190155765536653 0.1195652421472695 -0.08927493002049493 -0.01300920455170926 0.025470488611901692 -0.07250215055827451 0.015020744194630311 0.06073463147500682 -0.06048339676678586 0.020113883424391937 0.08189875720523504 0.06751538064552828 -0.03842759910689283 0.05582021199765337 -0.06808408422376253 0.04093076980566189 0.0653781158683656 -0.012768920994662026 -0.024428833095178456 -0.026039706874946982 -0.04059300433055322 0.00625789070066512 0.11077213524759265 -0.03748384771037782 0.021696411458382362 0.04509383372383902 -0.029705593451773205 0.08353675717787361 -0.04679442544849388 0.0040395073955913526 -0.0367640334240062 0.1123709075086399 0.10301721073187887 
PROCESS 0.08431663996623441 -0.11318224845964016 -0.11121652961615987 0.06663376620840063 -0.09221834936210996 0.09356753429851976 0.11086119451584997 -0.09076858092002536 -0.06543645076054386 -0.04711778885989962 0.03693480326776227 -0.11059908672290998 0.09764430346492897 -0.10002219682814772 -0.11836911962186243 -0.12773906235820304 0.10616223922090334 -0.1417090277339907 0.10218098544296869 -0.07924800836154787 -0.03710169343575128 -0.1263059236048804 -0.07110145541081538 0.02243882236550476 -0.07781784017182056 -0.04770333812103531 -0.13365436430383318 -0.1244884150403252 0.00884148293644649 -0.13342409766781432 -0.06933550552392267 -0.11714160217649809 -0.07249092415278592 -0.060094524322240314 -0.01252308773172005 -0.055071999358982215 0.02559272612975367 -0.11478046011012367 0.04019939257457782 -0.0647052677680486 0.003211110567037585 0.14135627518024255 -0.014297439415390351 -0.08766499787021392 -0.09703629176523917 0.026446055423517204 -0.08567219527382755 -0.035756711091178506 -0.06163000643003227 -0.11391212672692085 -0.11911304926665406 -0.12919681182778986 -0.07909534563617508 0.0882409817308306 -0.11368445410353348 -0.10576948321347045 -0.08277728088653705 -0.09221196236138167 -0.06689968128985883 -0.16040935021746325 0.0090547293716506 -0.11440411277482483 -0.08418161219118563 -0.06759854751554403 -0.18232321538437904 -0.11343818353925456 0.028837059174982218 -0.07545253840109997 -0.05561254268773041 -0.06802832443078183 -0.11629624238590278 0.026136588798783836 -0.12400577639949195 -0.0740841380860599 0.014968642239832112 -0.040026831146789045 0.005213657561979762 -0.09341801598512202 0.037037076640150005 -0.10716897617996364 0.04019367196944764 -0.011981607304224215 -0.12375720811491304 -0.10820786960582307 -0.017793303473188173 0.042933447728335586 0.09007185101996325 -0.10183640030186862 -0.1414109555161461 0.04728471571624241 0.024504041825153037 -0.10612093348959696 -0.11500866449598847 -0.1082914098082678 0.04801027768992309 -0.10692178712224921 0.09820465143869128 0.03749795854478824 -0.15999680863653667 -0.038870877161582294 -0.027507350623515142 -0.10012979783453019 -0.07651576755086284 0.06725348687624916 -0.136553496336736 -0.09574437728985966 0.054413990375898384 0.0913081276224846 -0.04998377437351627 -0.1156319978257624 -0.051273460669588405 -0.05265003994050861 -0.056457658070108226 0.05041618463297447 -0.13045779763618207 -0.008853721475647726 -0.08057111065668328 0.08308702006473019 -0.13700306740109838 -0.01113027378888789 -0.06668009584519743 -0.12729416581873582 0.060862132713778445 0.06543503121981209 0.021701195683142577 -0.06996300741452427 -0.07248488690634623 0.04769545118639431 -0.0956179514184223 0.08078279864172097 -0.0704496553548233 -0.0373549536136515 -0.040446458790592214 -0.028955201069611282 0.0035083614336568415 -0.11086378034570013 -0.02068412033241908 -0.09912656602480435 0.06763192521891037 -0.06198576509691063 -0.10927436316166844 0.10525511217497549 0.025309258086140405 -0.11167678884005745 0.013881945959545427 -0.10755098389757921 -0.08473625712454264 -0.12213156392848777 0.01135285552518996 -0.14887602726182253 -0.08148960540425372 -0.1288517928948707 0.061885820386859476 -0.08719627486584626 0.003451150836894316 -0.14511771560606224 0.05188876443384181 -0.006684862866640873 -0.11670257332304151 -0.12377814273310807 -0.01686536125735174 0.07700140140152391 0.07719944576664077 -0.04136501557911283 -0.10294912537061598 -0.16265331094257213 -0.018151912658056317 0.023959586913678856 0.009230710723556239 0.016603372205913555 0.13602945249166126 -0.12867421744721202 -0.0013976775498259024 -0.09906912348904424 -0.12944876651898415 -0.11248972425062069 -0.09526560921484069 -0.06505006529217056 0.11532727249656786 0.05792088788733625 -0.09129035534954792 0.017643531347031165 -0.16925818051816593 -0.16518485436851976 -0.0628046262246774 -0.09501862203617414 0.08268112219468711 -0.10271385708203168 0.03322611961402514 -8.108968441364885E-4 -0.09214361963636156 -0.09507408022480475 -0.14928889589268005 -0.06403819787832665 -0.06399613116893371 -0.029121069725556684 -0.09035925632386235 0.042114702702873194 -0.10333646198207708 0.010149979239824245 
METHODS 0.10779754187611647 0.02662445305824133 -0.04820894688101426 0.02675137596798864 -0.11479943477911188 0.19219387143731242 0.1340095616586316 0.03203960531135914 -0.06463570962803451 -0.018495936926628553 0.08601825750886724 -0.1140045015269941 0.13572281501206657 -0.10903239365908328 -0.06356057820988881 -0.12661287380771963 0.13529986665532864 -0.12363395892374554 0.12420539453909876 -0.11954182762290097 -0.08878659120016888 -0.014086421136693459 0.022412500799253353 -0.0021304752439160286 -0.08431279553627098 -0.08798372247280858 -0.03575528628413224 -0.003760967831624433 0.03186980141458253 -0.06243556086400881 -0.07604672867854562 0.002260832046550232 0.013905079086321916 -6.577712966224022E-4 0.13872074800142356 -0.03282715050223659 0.001162113089847314 -0.14489868557373112 0.13428979882547226 -0.005414547703592131 0.11782690914526366 0.13874145099757124 0.06513480541042296 8.974973130058362E-4 -0.027113523667447688 0.04448615280512422 0.03617869427820182 0.014290481631385696 -0.09237927394547754 -0.025401055830395185 -0.08988741437617126 -0.10467517868098132 -0.11943520001813587 0.0996305194689238 -0.15533328965016127 -0.059877311754062315 -0.04254926720012151 -0.11667536121602118 -0.057534637969540885 -0.01336361402076645 0.016353526228195987 -0.10570921442104914 -0.006826441142434952 -0.0022393725601387703 -0.12678454489195626 -0.09681570382071224 0.03597796111671776 -0.003907663238087563 0.0010657425341225352 -0.09907353717303836 -0.044410383091996894 0.11078505609444579 -0.07855791112864058 -0.03908695671678238 -0.06342381120779589 -0.02986855240925197 0.030937132191144964 -0.14269015139500282 0.008118496042962694 -0.013652683502435895 0.0975529772813554 0.06804782762263765 -0.051390627591610484 -0.11703501280662572 0.015461857332965085 -0.004965457328658831 0.15833787730021562 -0.13530120583997998 -0.044435150008787075 0.04079387803420529 -0.05708876352418802 -0.02791307421771853 -0.04866997021484942 -0.029991610879303816 0.0970594333297388 0.05228424885109883 0.12323334019036948 0.11603255924844005 -0.09896136244100694 -0.011324588723160596 0.08383151676126928 -0.10839906641547205 -0.05387905003705439 0.0026137325782978078 -0.07385233319771976 -0.043419335317862705 0.08434545511113067 0.18180924928105952 0.0373973063193489 -0.09752477830229192 -0.04653703933435964 0.057728281022493166 0.08715764021179248 0.00470992141024859 -0.0809974437377565 -0.02318536354432193 -0.026097456873004403 0.1533520315092605 -0.07264311888869596 -0.028699490018389513 0.013706573373378399 -0.07786260104602509 0.14773473865729644 0.16671585735294792 0.12562481562640396 -0.09939689534154333 0.03854359260417092 0.078563654031784 -0.061954705049102256 0.10076066952613279 -0.04298296376937308 0.16232634505160598 0.0015388779785046828 -0.007766888581261704 0.020655700560086008 -0.06506864059790843 0.043351804150614175 -0.1129489760469469 0.17632220026512355 0.084487097633268 0.005922012157452288 0.14374052705164475 -0.09910744743435597 -0.0693001029632155 0.06466721916799137 -0.031822496874533326 -0.03275167384456906 -0.03697093041537677 0.15784432708092283 -0.174588135470743 -0.0520629846628531 -0.028939498820688345 0.00842358677958519 -0.03585997637942623 0.07568778754862013 -0.06249203316474546 0.2012877056566736 0.001596254374484842 0.02248537905371273 -0.030919043289554207 -0.04040766156011541 0.06915397261293484 0.010575357534577761 0.06539043830546055 -0.053128123943046425 -0.07435060862652232 0.009505290258303592 0.13178273275754618 0.08763907011789374 0.06162114823273418 0.08542063024640463 -0.023048801371838606 0.016493361931190133 -0.03545961181598089 -0.07708576132707594 -0.08279815691973647 0.029859407140460977 0.09903700242770189 0.181479189543435 -0.05273072850951025 -0.04534052341218 0.014746458524497505 -0.05596985505454903 -0.04965862159362402 0.02079716550409427 -0.09758671065211544 0.09818401082117967 -0.03812322031182612 0.08784508856733066 0.11817658586244006 -0.024980883291344895 -0.056473209477913476 -0.05717518525499718 -0.09611874160255646 0.1005229176844367 0.02530931735333111 -0.03135270118403006 0.11202078280152422 -0.0178136249572718 0.14986158352439502 
SAME -0.07220831720371158 -0.02447560425158689 -0.12641197438198915 -0.0706910270863979 -0.08019778116856416 0.02047629130967154 -0.007662643986050331 -0.11964078957095042 -0.0767547750234541 -0.09127701733771307 0.0728865064565985 -0.06102009756498998 -0.0015296814217383235 -0.05175632716594862 -0.07369776957586212 -0.07894468377457622 0.037648560634955475 -0.09093402571363628 -0.011071403892241052 -0.03446687545809758 -0.11694305982491138 0.006953927283508572 -0.08397527291490171 0.12767131526824163 -0.11761820480953802 -0.13299832887034818 -0.10837958878932893 -0.01858167055855208 0.14603377776596013 -0.04020498889091739 0.020552120969660703 -0.019719364401445456 -0.07996750488484462 -0.06442746711822786 -0.03602869962303809 -0.15860139421531974 -0.15756237480961177 -0.0443921621376596 -0.11671745627763482 0.04065548959424613 0.015568112998771257 -0.04958988914008269 -0.08853654247952868 -0.020404720808684784 -0.10679534452411292 -0.08725319466142106 -0.09688183867725726 -0.054457817743616334 -0.1453218890736885 -0.03415326516869621 -0.04948721109023352 -0.08493746763198161 -0.05579576191641848 0.010879796566959197 -0.09722049071622502 -0.08949193540970472 -0.05669089250891713 -0.11192855030346797 -0.11765034374783312 -0.10283449665604927 -0.04906319806651854 -0.1022598809702315 -0.08661766694360193 -0.08703648904607034 -0.1192513738028937 -0.15058417670644758 -0.017996598309232684 -0.08559383408203274 -0.08971680058216344 -0.03940613138469057 -0.06287165755173614 -0.1210679331943223 -0.10487272207569548 -0.04034841979164001 -0.07132859550115109 0.07867114083030385 -0.05337991076750233 -0.039115029141632895 -0.07096951317095944 -0.11381797650244477 -0.11620062913195958 0.012229757139532803 -0.0879147465018978 -0.08078407568587903 0.022904591253886282 -0.07065725927861273 -0.05596197133829386 -0.13252351484221914 -0.01582702436985401 -0.08944313568249702 -0.16414340839107308 -0.16479076079452892 -0.09663930820877248 -0.0727602266690216 -0.06658774097020713 0.013566879938691639 0.06935626433042998 0.03106197631403473 -0.08910301965858543 -0.025046714116756883 0.042250068888300664 -0.05023611563714635 -0.04068980807290582 -0.009717427344284666 -0.026595492097382625 -0.10011596220399664 -0.03948513148940662 -0.08112780377337891 -0.017204908013617286 -0.0712226744599398 -0.1417158528501534 -0.08784304250875732 0.03805684376242783 -0.0034372395781253917 -0.06677129888920222 -0.09021916909381944 -0.09515614198189262 -0.02944218853244865 -0.09442933682219935 0.11155159987175034 -0.08372701343260655 -0.0930061910945955 -0.10953480996566002 -0.02130413314640408 0.007980312402444626 -0.11300053716831057 -0.11001625945413362 -0.010464149851879975 -0.09829057795188288 -0.06985335284406252 -0.056200989481111616 -0.1268835815744 0.07405723626428373 -0.10716383613045413 -0.015997214206549475 -0.0801627504908316 -0.05586933551459423 -0.07223325721797337 0.003184503715533997 0.031594494121608634 -0.010333705856472619 0.024926935003355386 -0.052173722831371505 -0.09561843067680428 -0.027947620361239853 -0.09491534584599723 -0.0858996126961803 -0.08009132355427787 -0.024769093855274423 -0.11289752840855356 -0.07874459923460264 -0.1051587638385529 -0.019067904791972852 -0.13316928062867506 0.03271658447325146 -0.02298124373643855 -9.196468342160865E-4 0.12981168370771284 0.028284648591379986 -0.029575863355786877 0.006903287658355406 -0.023814493456964125 -0.012329812676184859 -0.06666525127680517 -0.07004868551487531 -0.05788758568097066 -0.031224403052813002 -0.14371776719336757 -0.12840831633369051 0.09602919222628982 -0.06699605987075376 0.020980204507792404 -0.004509385004823186 -0.12881542737750737 -0.08940200607778788 -0.08314187977033921 -0.09569449406273516 -0.02871926835326793 0.048936880004718464 -0.057688484719543846 -0.16904825865517753 -0.029547073744492374 -0.013131062599076619 -0.05452865103207597 -0.06872022916264116 -0.1172358470366751 0.018153236901633087 -0.06733756108194125 -0.12099327587754073 -0.0965061410327994 -0.08033418021442959 -0.1293078376528652 -0.012664948594883221 -0.09878471808434691 -0.03172494407215326 0.03446802796589029 -0.10851263158749481 -0.043587772942232456 -0.12136740284243229 -0.05296291137849941 
CONTROL -0.020501169479196966 0.07967501152318286 0.0580835486311507 -0.11058465601774034 0.08203336708825458 0.013795569907805694 -0.12499040616850955 0.054020771371060115 0.13035464842768305 0.05506143650655685 -0.13405181107792483 0.06094384359743285 -0.11759464812031693 0.04450706019823812 0.03581502221481423 0.009035088374097085 -0.1400819613302688 0.05743526376038507 -0.08997344504712558 0.026131149406252968 0.01491426608293658 0.1031855762134606 0.01835993972459889 -0.1079764094518389 0.026806138150129343 -0.030969035457873245 0.014771016531678801 0.03294653589491888 -0.11489350245275269 0.14254060921289508 -0.019777061298061085 0.11340427556858976 0.007739559535600829 0.00942993752814891 0.12956744975430878 0.045464120208906375 0.03336663929875452 0.003562600813370553 0.13596679304827697 -0.0490215707787198 0.09543227388861739 -0.04830576784674538 0.15495437032264348 -0.01472546102732115 0.031285706063784655 -0.038854976710646943 0.057613714139792 0.015100466572705785 0.025744697875073767 0.01772384629136026 0.0376352458967224 0.029844391234456338 -0.01498998170202807 -0.14256918356053916 0.005914831481803928 0.08600518013881372 0.017444173018578927 -0.015727935046897165 -0.004101648220140824 0.04134204863623959 -0.014426439465938459 0.07232334818244722 0.02928623084065369 0.012944600602659924 0.10123369859400415 0.13459768780916356 -0.10229617121373387 0.019082645246323155 0.018847586869305932 -5.740119477771392E-4 0.013619718833151809 0.09800401233137354 0.046530487480145544 0.005227928823416814 -0.07955553898278853 -0.08481232873636398 -0.08243572299000726 -0.11376456207063666 -0.05037492472816092 0.03593632850154811 0.09379336089433374 -0.029762356550423634 0.15749965467506877 -0.07108712909707823 0.009631537764570779 -0.0774717786671927 0.02584586515535693 0.053908649677188045 0.11151131801165998 -0.06143957525068234 0.029760925512841298 0.15050731353174823 0.13806557706546263 0.026719131415941868 0.027364548184494224 0.08711216131848729 -0.13368268167746464 -0.10557472801287188 0.14952644478290084 -0.0246185748427179 -0.045223445266461805 0.05434612063236059 0.061975774250108556 -0.09581802012806916 0.13105026073446469 0.034030056768565194 -0.060306507593309015 -0.0202349777285259 0.005270987592557412 0.02823857515842884 0.07921048913885387 0.12819521074631376 0.031780919832583354 -0.11067134368073077 0.02582411409719246 -0.03525984058883013 0.05721962613702681 0.023233069502139034 0.04585790234842285 -0.08515695735813394 0.04538925640872645 0.17547245584612728 0.14293449112921333 0.04411878120886629 -0.025104675170795416 0.018716484987414787 0.04554229754570877 -0.12799066261017225 0.0552749824568171 0.07112514608959582 0.0021565610925091405 0.08961681185300885 -0.09780631127370248 0.020754544723415824 -0.054495920369864205 0.04163003159314637 0.07101199356416715 -0.003736840463329832 0.017834316855219585 0.12405571626132374 0.12418317574572105 -0.11086746457665039 -0.056918489037504565 0.040716320650463454 -0.011078590483815843 0.005633471522251258 0.022833503960053427 0.027471172607937838 0.00651940610309378 0.06445035852884298 0.03495860616761468 0.13471720980306798 -0.06327932663626441 0.12685921123004387 -0.03843572220761868 0.124001691364322 -0.034313016642648166 -0.12990389142722264 0.03766732023170321 0.1388406595232749 -0.10008705643571415 -0.12369851077069749 -0.046082738490693304 -0.021515892722256343 0.021142740682838414 0.11624837897210116 0.0016531005691260878 0.11440059331774678 0.11039081624575722 -0.06973220716592785 -0.047403452045318935 0.10006948432993107 5.245589980914574E-4 0.1431226992561524 0.15503562459762363 0.032547119391669814 0.014615731799805786 0.07983739379601953 -0.017701118517575835 -0.06846933686558863 0.1297861228625185 0.013304415491647315 0.09280851877694882 0.12314366096932011 -0.015877551128200402 0.07391912725275591 -0.14765085207284337 0.01975197133345399 0.05409372791429272 0.08440773406492595 0.02290276233466325 0.1102391916700183 0.09992840380915681 0.051169593141750916 0.08303327875317196 -0.039233335782351636 0.017053888473122197 -0.05307432237304652 0.08410938899316872 0.06125167676280766 
HAVING -0.10190031283102563 0.03571997266830778 -0.06913130408701246 -0.021207157512002275 -0.03095105737107554 -0.07406891628173007 -0.07937742524642816 -0.11663440189203596 -0.08254112947683102 -0.05907448904297359 -0.07226599538970452 -0.027027026372420628 -0.09449853541342772 -0.027116700763863372 -0.045077610773525276 0.02690157039946185 -0.08693271837856428 -0.00622353346843499 -0.0939739929712585 -0.0015158223037957021 -0.007133092817209053 0.03964468196852794 -0.10167317687088556 -0.0351637593712182 2.682628395153241E-4 0.01010767986064733 -0.05252228222054321 0.06782696794967484 -0.06625179330148474 0.05629264639723143 -0.040807183885247 -0.046761569754431055 -0.09874359939849564 -0.07848841147670929 -0.062427934715846095 -0.02968243463457951 -0.03150134848428392 0.03660583040435864 -0.06353780902999401 -0.07611629060441738 -0.03810446370860711 -0.0900289042455728 -0.012987019130963192 -0.09301933443556301 -0.06824906461311418 -0.06064207691103938 -0.11973515330516693 -0.09187128039787582 -0.004052132376689855 -0.05799620746736403 -0.018311132592588524 -0.013520724879406518 0.03326192655987989 -0.0690737506678582 0.05666024409990769 -0.0563162274486412 -0.05284575540355196 0.035571526156789456 -0.010799320463115629 -0.06073631940383122 -0.07503824508965364 -0.02303408956541699 -0.09109955799992844 -0.07915780879312673 0.008199403084605593 -0.043147545970033854 -0.037220474825045875 -0.09382720418185228 -0.09279675774732446 -0.023721076937389184 -0.05536396819198469 -0.02049768923308386 -0.03840100120767038 -0.05945197614272659 0.014111108658026799 -0.024530252829176622 -0.05122585724595264 0.09375651051548761 -0.042145300589138825 -0.08854028278314921 -0.0065788681393782 -0.12687190226304612 0.046130077019943115 0.0568658966001505 -0.086003139207702 -0.029618703151866464 -0.040703088884993494 0.018946904350672686 0.04027012782757961 -0.05040479424087805 0.011656355677012896 -0.09389377178842803 0.06770414621815185 -0.06976393217935158 0.008327968306124683 0.02122884756367587 -0.09257523074368695 -0.0870772082657303 0.06509990047646481 -0.08813698838521257 -0.1291635879991418 -0.007686100970640806 -0.06729254379432108 -0.03944190509582541 0.045834920541142396 -0.06630286946103144 -0.0784135878204162 -0.12499900362565178 -0.07543309094037949 -0.021977175426135726 -0.043214658592970974 0.01526020073655359 0.023077996618306403 -0.026610810332772697 -0.029435073611583113 -0.03673207597036772 -0.05659015683418868 -0.041718112512598625 -0.040992490702479095 -0.046072141609025015 -0.10629464480325108 0.04606705993630881 -0.07879393306664606 -0.04495523722406297 0.016878876237093225 -0.023165612055989864 -0.1104931393858913 -0.046646992401151235 -0.056264661603336596 -0.007890262151960814 -0.03846381752165195 -0.16263943549060556 -0.03797039228273445 -0.06600596425915654 -0.06387568848345379 -0.038522781276747 -0.14290143170749992 -0.002745491863977378 -0.0585568712167607 -0.03778862856132642 -0.01611307131996911 -0.11515910784052355 0.0018478197063125238 -0.043270456480124925 -0.114569737421713 -0.06865130208097778 -0.06258817558114677 -0.05819104086786301 -0.14434834446016742 0.03868042400474207 -0.05286053866950019 0.05650089266388434 -0.06501534406235773 -0.09925992698380996 -0.10634013818006141 0.03131719439914445 -0.15750963506824403 -0.03396991957640502 0.042159516166670984 0.018584356888081844 -0.008141338696724022 -0.052194230580382014 -0.06481402365947779 -0.11275200699401121 -0.053991222707480975 0.0111980477766658 -0.0802020525077349 -0.08859155422203548 -0.0010998299063465324 -0.09818315686973542 -0.07012421061025277 0.04726672785384991 -0.08652606037940001 -0.09465263317871289 0.0678168549609334 -0.03279849672964207 -0.1066042888907574 0.006300662194331076 -0.0624136022966873 -0.009704580056422026 -0.057569156473585216 -0.07764810608489443 0.040623660900703594 0.03543603825891163 -0.09001244758672924 -0.008880467326652444 -0.06298622641966728 -0.06831689687177013 -0.11808464466821399 -0.00988572941699011 -0.07526821315444261 -0.07207252569155737 0.04940547328061574 -0.015894382031770606 -0.001871753187769072 -0.09839317923610764 -0.06529918975973235 -0.10139054933086311 0.07763654828529212 -0.036664005530776374 
a 0.11196178922433148 -0.103740758160953 0.11563677287056262 0.13717897129926648 0.13033268068889017 -0.1306054980948342 0.11757052990599175 0.09906525781411844 0.1126224687651827 0.1323108318213445 0.14269234464783 0.13509515564938185 0.12346247508577346 0.13969937310185632 0.12760072019631274 0.14759806915535803 0.12416019942520631 0.13801474243635498 0.11981415942328996 0.13659573809910827 0.13854555208284944 -0.10249925966443689 0.11426205730401508 0.13149939320300477 0.1390068256130304 0.14588740556353963 0.11740235386742422 -0.09154869261523851 0.13641633140374704 -0.10469866067156196 0.14345791808411343 -0.05744453809746468 0.11703719020647428 0.11877533563719775 -0.13514637714010402 0.12331537701913609 0.10951910184310021 0.14905449211547475 -0.13292325120059945 0.13322998501612693 -0.14375308340474746 0.06857239348665141 -0.14686841436288492 0.10575175660424262 0.12371655441258024 0.1381055526453093 0.107108735039647 0.1140139848832306 0.13647973588125556 0.11090899369795941 0.12499246923434695 0.12861389164561418 0.15013159461224238 0.1304128253852191 0.1488759918202762 0.12476504497864437 0.12658185548227688 0.15067062113015542 0.14410702818598986 0.09894533933258602 0.13967908398708614 0.12921449203324883 0.11611496427054405 0.1180103909280205 0.10279622346615912 0.09708342911035041 0.14696249476631765 0.11079123387423294 0.10946434068006136 0.1378368972899475 0.12602381249233807 -0.1248350607920976 0.13041065397463075 0.11831995257561226 0.144841151866394 0.14840381178984086 0.14556511114924547 0.16135781117255407 0.13729516759069266 0.11703997132603662 -0.12823489160386756 0.1057931023447704 -0.11182701471116831 0.15665246542723238 0.13128658276441446 0.13953562524319565 -0.12135750209465465 0.1361259939695074 -0.09242959764489413 0.13437482025855071 0.1091967180354568 0.06670814526910934 -0.1172787050301888 0.11623927255253584 -0.10984454772213634 -0.11252540052142827 0.12544204587181335 0.14199508855311413 -0.08133357964415287 0.11055388117744352 0.12825685297346254 0.14057157521719207 0.13136966555851307 0.13865987557536227 -0.0949994767064981 0.1181251753666601 0.134111269845579 0.07603499101009197 0.1402670920875174 0.13100063926018007 0.12245030294507228 -0.13374606671363443 -0.122670162522996 0.1425455097996106 0.12669228968095786 0.1442252134491944 0.1306147978311227 -0.12825103501777615 0.12445221781830171 0.13105072324917158 0.11194532208774614 -0.10782226582180966 -0.14148706931428398 -0.13845278750357304 -0.1160112433777641 0.13906096218669592 0.09795549686391566 0.14365185603326713 0.12490908496645417 -0.1440602073457912 0.14592826623945349 0.00498511355056792 0.15285122731391523 0.12947645868360866 0.14372270282105343 0.12549296979303587 0.0930599400942153 0.146660439786937 -0.1284820439522102 -0.1290663621646105 -0.09675992472990023 0.11500872268170159 0.14071395472448917 0.1266642378981179 0.10395519660118457 0.12346088176109067 0.12297563438846161 0.12202678364795126 0.1134349163091255 0.132085654527564 0.12746945522453923 -0.10867687529363458 0.13239402537417452 0.08665856119829968 0.11774018502774668 -0.0791221093738957 0.07830417494201385 0.14360574637856116 -0.09912327265734161 -0.10189604074321831 0.1527157836621789 0.13551771278512748 0.12796140200495226 0.1057258042492698 0.12524592323783523 -0.03837328124508909 0.1412218295755551 -0.09879311127966618 -0.13066753645560764 0.13285632507822742 0.08479156779234795 -0.10356153567011109 0.13502816390684233 0.09258706404897676 -0.11296010291211514 0.13182041308389772 0.11467000678876231 -0.12420567156828474 -0.1390564377846537 0.1352748779341568 0.07567342008323304 0.13301015738370137 -0.06644858028548538 -0.07722246158925296 0.11670621159876934 0.13361151995764955 0.1355145077802631 0.11868417861418037 0.08345517718022626 -0.12970195289901018 0.12291274095969819 0.10271306580452164 -0.08375199622622075 0.13577812456320623 -0.12588663860341073 0.13626217209920968 0.11842352636389514 0.12976131779942027 -0.10842375689964447 -0.12585411330159144 
IMAGE -0.10750041754079537 0.03204011986333033 0.02538503301922134 -0.12150175056892847 0.025030658677476152 0.02024244422533601 -0.11244782282429444 -0.06741201465969096 0.1248293054083097 -0.07923699484560981 -0.17536096189996028 -0.09966293691025921 -0.13250916791286463 -0.09409706849850384 0.11209638578855138 -0.12037157823964922 -0.11641438621522464 -0.1581349999465727 -0.07396520112290438 0.05252415761068421 -0.05960367581209622 0.04316608102191226 0.0691909446351451 0.07047697922548746 -0.11018549828650114 -0.1296510156633032 -0.012017527163852872 -0.04348489254095483 0.001065346437333588 0.06326797730533236 -0.08105286833476787 0.0393954760804309 0.04681700600975103 0.1268071591554345 0.08570713305871049 -0.1576238764329678 -0.11609602021403527 0.013188944261488766 -0.021298662602696482 0.010653885177008441 0.08414575402131619 -0.04218788669901991 0.13639685467766757 0.07296117632589488 0.09849302136783107 -0.1262802487552535 -0.042707962807203056 0.16050205825586916 -0.12037511020208706 0.08305586457066619 0.14274129227040425 0.10676893263587632 -0.06290873609932161 -0.15118782585196974 -0.07480537557585307 -0.09462852957817065 0.14355821148777823 -0.11849296701046694 -0.13024492307373006 -0.05938959385558921 -0.1318636179039168 -0.08678998782119651 0.08861795354408712 0.12499018568802384 -0.011146236862965713 -0.09092970088133752 -0.12696011020280928 0.10009651152750175 0.08652820830244248 0.03159740030693179 0.09123020665043072 -0.0945877578142876 0.08785417688055286 0.14784717514798648 -0.08139414314095128 -0.06361572104826554 -0.15421043192481798 -0.12328860893340626 -0.11379796698753061 0.020917949030360875 -0.1364301809581133 0.03903760866555988 0.06713124596097447 -0.17415349040994288 -0.0170170668730697 -0.11863426520152424 -0.1640772293659111 -0.09112551722241478 0.02160362737500988 -0.14888038920220037 -0.10130334517463381 0.021707197110729333 0.06132778711826545 0.08694855798946975 -0.18136461801281806 0.05085439364147941 -0.10450159953360999 -0.16403221867582746 -0.023203083498794137 0.10375141999855471 -0.13418428625482143 0.08786523659948237 -0.06543517380428869 -0.11297304162515534 0.06253611768989853 0.09671183979713051 -0.131113498246272 -0.14690026107699272 -0.11782331822214008 0.13394967597303944 -0.11066193239701128 0.09473276427067054 0.045107191377776454 -0.1491135060079056 0.10224737750957896 -0.11663841054460329 -0.12137818111811649 -0.030856278748088876 0.06777759601833394 0.12442843498852725 0.040154440415500404 0.06683574450072988 0.037470441059564874 0.03741541145074227 -0.06276713824966021 -0.12449613010168288 0.014086159137685713 -0.16581301120320943 0.09483514953160747 -0.008596252332260182 -0.1267735486481503 -0.07055440235592578 -0.15572245194482265 -0.14601431152745797 -0.12898517293634085 0.13244193491450787 -0.10316031230478508 -0.13538101900934715 -0.05016117288344865 0.09954842502099273 0.07226713441823954 -0.1238908884175167 -0.04769112911978401 0.12565405049356893 0.113502952185731 0.04956440714006251 0.11634931500637541 0.0806488501676198 -0.12367990941971 -0.10624294105701008 0.11831204882677034 -0.00459647084390637 -0.13384745754642044 -0.041418940473231136 0.08572981922402868 0.05719597713320145 0.03743024665150345 -0.08453692220596118 -0.016092095385027493 0.06972332432050488 -0.12027213254242165 -0.12332362595068824 -0.05638879095011235 0.037396454892335104 0.1251764048186445 -0.0167672786903465 -0.12430775600523798 -0.1264170155095211 -0.08808638504896046 -0.052616503118646255 -0.037258104501366955 0.06437008834679195 -0.06429174170175797 -0.07302052532386251 0.04122862789906307 0.12303168839244887 -0.014275459371088378 0.04376802191902098 0.004338368530598365 -0.07219784289225678 -0.07650526296342466 -0.05991246177526811 -0.05617122836417885 -0.07520266822092879 0.0711496280844427 -0.06787646702400911 -0.15612710801901264 0.0916706240620246 -0.11137861195380673 -0.011095351400050515 0.10239730292347844 -0.10915648593602624 0.016256733760016157 -0.038972717280327994 0.045513041273024864 -0.10161593413317901 0.06980679511732833 -0.13568376607198304 -0.04670974778703878 -0.024860431242172493 
